1223 256
的 0.333530 -0.113951 0.936344 -0.385499 -0.320767 0.152473 0.123623 -0.713746 -0.787049 -0.102757 0.007865 -0.237156 -0.037022 -0.418642 -0.247722 0.018990 0.135721 0.060799 0.023692 0.513825 0.047296 0.236368 0.015713 0.191393 -0.324223 0.552965 0.128685 0.492200 -0.501214 0.312275 0.136035 0.304329 -0.202262 -0.845151 -0.109147 -0.272733 0.138532 -0.127789 0.408213 0.549721 0.336963 0.239710 -0.257187 -0.647409 -0.704429 -0.532097 -0.138077 -0.038999 1.037452 -0.515199 0.995012 0.307928 0.384414 0.466760 -0.189472 -0.225341 0.506924 0.052732 -0.040775 0.309061 0.138612 0.027196 -0.147778 0.325333 -0.083371 0.280661 -0.565822 -0.094485 -0.505027 -0.499390 0.582157 0.061418 0.363073 0.399109 -0.138837 0.087413 0.213051 -0.379662 0.062098 0.401144 -0.394204 0.356163 0.716116 0.354820 0.000186 -0.048486 -0.260386 -0.033422 -0.437048 -0.095405 0.558648 0.283508 0.399837 0.312261 -0.046524 -0.116049 0.345799 -0.032482 0.088147 0.427167 -0.606089 0.148662 0.484154 -0.710693 -0.000112 0.714750 -0.408707 0.077779 -0.463682 -0.622335 0.312268 0.371163 0.193174 -0.581929 -0.327459 -0.662080 -0.476385 -0.323958 -0.133041 -0.076835 -0.807040 0.014526 0.464162 0.149012 -0.617189 0.153562 0.012729 0.012571 -0.510708 -0.452257 0.286309 0.213458 0.915383 -0.374811 0.161206 -0.337454 -0.170187 -0.278954 -0.563089 -0.328640 0.288270 -0.068211 0.236204 0.116851 -0.301159 0.121600 0.164985 0.280900 0.450119 0.120743 -0.124364 0.110808 0.305951 -0.240928 0.052374 0.412019 0.230470 0.611900 0.007994 -0.707199 0.807030 -0.077188 -0.238266 -0.011938 -0.007083 -0.241666 0.217913 -0.717878 -0.402922 0.017628 0.070407 -0.327116 -0.178345 -0.020690 -0.218436 0.299852 0.486392 0.048408 -0.445570 -0.370676 0.140069 0.235542 0.687507 0.188922 0.008600 -0.210544 0.495290 -0.174480 0.380594 -0.072092 -0.136720 -0.729191 0.897649 0.126718 0.321271 0.097657 -0.311844 -0.292930 0.066975 0.193891 -0.184604 0.109221 0.142229 -0.028655 0.541283 -0.369038 -0.154311 -0.010191 -0.189705 0.005590 0.040619 0.324832 0.250185 -0.137085 -0.243475 0.288153 -0.555048 0.073088 0.087642 -0.200493 -0.030569 -0.475845 0.088990 0.896135 0.639771 0.099394 -0.959958 0.362070 0.111816 -0.853149 -0.740697 0.358125 0.044698 0.562336 -0.260834 0.543794 0.164735 -0.281663 0.248162 -0.041824 -0.122941 0.189264 -0.522903 -0.102159 0.196311 -0.093373 0.455726 0.242909 -0.603823 0.240110 -0.120362 -0.089748 0.399678 -0.486152 0.041155 -0.406998
您 -0.068519 -0.277707 0.205373 -0.062928 -0.258699 0.297520 0.227915 -0.450368 0.053435 -0.289244 0.173453 0.660738 -0.333027 -0.247763 -0.230439 0.392512 0.492053 -0.321336 -0.536846 -0.069214 0.253062 -0.319337 -0.421552 -0.028322 -0.006029 -0.051668 -0.021337 0.470037 -0.340201 0.071542 0.470386 0.051786 -0.436791 0.310159 0.265122 -0.403122 -0.014758 -0.282622 -0.220442 -0.045286 0.303223 0.255039 -0.621362 -0.265039 -0.660427 -0.334318 -0.024914 0.188445 0.687816 -0.326920 0.507387 0.216175 -0.059668 -0.088074 -0.424878 -0.131194 0.197209 -0.091299 -0.182498 -0.002457 0.254365 -0.288921 0.173651 0.372818 -0.128700 0.145459 -0.200503 -0.081365 -0.576040 0.013746 0.524181 0.154767 -0.742687 0.092815 -0.465675 -0.228859 0.087023 0.485051 0.110417 -0.164440 0.051709 0.233670 0.517783 -0.060810 0.024842 0.219715 0.138559 -0.074190 -0.374146 0.288800 -0.393016 0.343985 -0.189753 0.272376 0.229877 -0.254623 -0.058392 -0.094297 -0.606053 0.020591 -1.172812 0.206317 0.092619 -0.130393 0.462526 0.003166 -0.116186 0.097345 -0.220584 -0.606049 -0.790112 0.379079 0.821331 -0.472113 -0.247715 0.281821 -0.323708 -0.302807 -0.390359 0.353757 -0.336676 -0.073070 -0.788478 0.138523 -0.046080 -0.304020 -0.414902 0.236479 -0.157827 -0.298628 -0.088128 -0.021764 0.210481 -0.056201 -0.095852 -0.614116 -0.338189 -0.292652 -0.024939 0.117615 -0.186095 -0.440026 0.324520 -0.052736 0.619957 -0.296039 -0.138162 -0.339534 0.088331 -0.101514 0.208609 -0.139536 -0.139597 0.309647 -0.133939 0.220678 -0.065183 -0.407027 -0.114970 0.240491 0.184180 0.097617 0.316415 0.727617 0.061830 -0.333936 0.087475 -0.472735 -0.062479 0.049324 0.330835 0.466428 -0.328359 0.345560 -0.274422 -0.088242 0.218580 0.052768 0.268862 0.400921 -0.508866 -0.359277 0.268005 0.659009 0.690920 0.167048 0.052803 0.325502 -0.004960 -0.216569 -0.767947 -1.081573 0.525362 -0.429501 0.569746 -0.003875 -0.572849 -0.014588 -0.258508 0.336670 -0.071465 -0.286753 0.450538 0.167269 -0.174823 -0.139907 0.427843 -0.175596 0.285667 -0.046792 -0.263243 0.060969 0.046598 0.073429 -0.162026 -0.107114 -0.791666 -0.326030 -0.195398 -0.040138 0.116703 -0.641722 0.510668 0.130172 0.119589 -0.050417 -0.053581 0.407018 0.253884 -0.436592 -0.181808 -0.411584 0.048700 -0.012235 0.162695 0.074685 0.358716 -0.329277 0.529720 -0.711361 -0.552481 -0.317365 0.094026 -0.119971 -0.600245 -0.033911 0.365114 -0.122911 -0.590907 -0.015402 0.629227 -0.256982 0.355212 -0.503760 -0.034229 -0.309053
吗 -0.381869 0.121733 0.066715 0.087242 -0.071409 0.283290 -0.536546 -0.058589 -0.150305 0.317353 0.137292 0.403827 0.145105 0.011982 0.055555 0.728408 0.186663 -0.053170 -0.466711 -0.138487 -0.267855 -0.097881 0.639523 -0.270103 0.198805 -0.110116 0.325465 -0.136917 -0.052215 0.039031 0.475618 0.396112 -0.847500 -0.087998 0.213683 0.003216 0.269768 0.038586 0.024041 -0.068986 -0.082864 0.232731 -0.205880 0.206748 0.147719 0.061688 -0.460839 0.107532 0.347227 -0.213519 -0.150464 -0.056545 0.158997 0.064506 -0.009727 0.134758 -0.174784 0.174151 -0.161822 0.384407 0.546534 -0.090829 0.508715 0.041387 0.262144 0.551447 -0.252925 -0.066634 -0.079773 -0.059272 0.193647 0.680788 -0.448216 -0.290922 -0.061710 -0.300172 -0.240777 -0.140625 -0.322133 0.269582 -0.211028 0.102163 0.817209 -0.505036 -0.240160 -0.071058 -0.036017 0.056574 0.052545 -0.511852 0.020247 0.756214 0.068539 0.329365 0.112652 0.297886 0.280056 0.215456 0.074473 0.191963 -1.022583 -0.125340 -0.097974 -0.170110 0.558386 0.205982 0.317139 0.103480 -1.349832 -0.316954 -0.173263 0.426303 0.536943 -0.536486 -0.342771 -0.112747 0.211740 -0.167128 -0.006677 -0.068419 0.276723 0.073010 -0.726692 0.037687 -0.167394 -0.319071 0.238715 0.585301 -0.344732 0.331411 0.475182 -0.299657 0.009249 0.260701 -0.271859 0.281043 -0.188708 -0.274433 -0.407321 -0.175011 0.288197 -0.565703 0.828655 0.431145 0.451969 0.816628 0.395085 -0.012442 -0.424350 -0.388137 0.343164 -0.165742 -0.224555 -0.416339 -0.589129 -0.013206 0.041571 -0.050218 -0.395348 -0.395696 0.456696 0.084969 0.416967 -0.330316 0.657469 -0.311135 -0.130304 -0.288410 -0.256419 0.481578 -0.093518 -0.647798 -0.062769 0.336460 -0.690346 0.279416 0.231819 0.445933 -0.096987 0.182811 -0.059462 -0.276811 0.196685 0.775855 0.122267 -0.202593 0.594504 -0.034797 0.021398 0.090237 0.297990 -0.720416 0.362095 -0.087365 0.653642 -0.037172 -0.402698 -0.133203 0.248331 0.151497 0.374346 0.027909 -0.254577 0.345959 0.332399 0.255580 -0.253499 -0.020266 0.310890 -0.089818 0.395476 0.097528 0.533354 0.613415 -0.147817 0.571341 -0.554260 0.704165 -0.477501 0.125140 0.349386 0.083475 0.040423 -0.140345 0.722491 -0.225584 0.117731 0.025352 0.099019 0.218837 -0.469001 0.222439 0.086671 0.422661 -0.301424 0.420525 0.089826 -0.411165 0.195336 -0.299668 0.294303 -0.260525 -0.292018 0.079362 0.227750 0.070289 0.712319 0.390615 -0.858371 0.390918 -0.205143 -0.535298 0.431662 -0.462678 0.303826 0.075375
？ -0.618495 -0.342470 0.108877 -0.194712 0.069688 0.025532 0.043044 -0.177902 0.242018 0.272257 0.179202 0.155130 0.240007 0.100935 0.199662 0.388454 0.298470 -0.258271 -0.563179 -0.093801 0.072280 -0.155682 0.242240 0.081792 0.196512 -0.478248 -0.179324 -0.376874 -0.326626 0.444106 -0.111969 -0.002489 -0.721360 0.030948 0.478443 -0.023220 0.082119 0.113253 -0.105346 0.008498 -0.151242 0.134310 0.006985 0.321644 -0.370312 -0.030105 -0.425369 -0.067771 -0.009864 0.063381 -0.038078 -0.218991 0.019308 0.107623 -0.105931 -0.500370 0.068712 0.197108 -0.026085 0.393206 0.213605 0.225085 0.303008 -0.031761 0.111225 0.685447 0.031793 0.163828 -0.024663 -0.082535 0.329319 0.145409 -0.503730 -0.291942 0.066585 -0.299252 -0.018837 -0.342066 0.047315 0.219255 -0.094554 0.021831 0.560371 -0.522927 0.136262 0.168323 0.152895 -0.460072 0.401989 -0.301138 -0.169853 0.750140 -0.110797 0.190264 0.175496 0.331864 -0.055645 0.304186 0.146189 0.156325 -0.501529 0.177054 -0.041033 -0.266574 0.660370 -0.024614 0.255591 -0.417269 -1.174558 -0.322046 -0.075888 0.146097 0.826171 -0.655069 -0.306718 0.035086 -0.245901 -0.180647 -0.031329 0.240329 0.171659 0.126503 -0.388496 0.066453 -0.649784 -0.145206 0.140243 0.484419 -0.103210 0.330085 0.134273 -0.115756 -0.127685 -0.023296 -0.558894 0.113114 -0.315270 -0.607500 -0.394338 -0.386724 0.001294 -0.494951 0.361763 -0.111859 -0.003534 0.069831 0.589916 -0.237804 -0.198365 0.124949 0.117379 -0.038406 -0.104978 -0.055629 -0.694013 0.009309 0.150763 -0.016888 -0.221049 -0.229277 0.517431 0.172838 -0.278011 -0.176929 0.505679 0.266813 -0.052081 -0.235040 0.053191 0.037530 0.143639 -0.644336 -0.454255 0.376219 -0.611578 0.269143 -0.002230 0.172578 0.078246 0.291301 -0.283332 -0.046859 0.276015 0.544474 -0.238141 0.271115 0.366653 0.001585 0.041795 -0.225477 0.371832 -0.745859 0.628068 -0.144846 0.123265 0.010151 -0.320653 -0.017174 0.369400 0.300409 0.021864 0.082479 -0.059636 -0.032462 -0.159900 0.160886 -0.255714 -0.046215 -0.043373 -0.249568 -0.250629 0.034136 0.289832 0.188173 0.053999 0.757754 -0.466750 0.594469 -0.109489 -0.292738 0.269938 0.148237 0.235564 0.020608 0.806645 -0.081349 0.096902 0.338035 0.068286 -0.233967 -0.493972 0.255610 0.543333 0.595280 -0.261044 0.648936 -0.192303 -0.255026 -0.001292 -0.023620 0.401922 -0.338689 -0.512187 0.090014 0.300629 -0.027937 0.535593 0.031283 -0.897996 0.359057 -0.077666 -0.038370 0.860673 -0.352718 0.301657 0.011948
是 0.226148 -0.969274 -0.047932 -0.545917 -0.805013 0.839575 -0.291617 -0.430387 -0.433182 -0.075443 0.044959 0.334842 -0.212344 0.366409 -0.025936 -0.283584 -0.489686 0.037354 -0.675802 0.212697 0.083665 0.124142 0.453728 0.060697 -0.410489 -0.150977 0.533564 -0.025546 -0.331795 -0.000005 0.440590 -0.210550 0.256649 -0.121739 0.567357 -0.488153 -0.127548 0.191246 -0.530239 0.352551 0.319614 0.460114 0.477430 0.209061 0.057499 -0.277525 -0.167619 0.182871 -0.266846 -0.383223 0.161284 -0.145080 -0.084771 0.425580 0.255445 0.272229 0.287081 -0.172663 -0.156194 0.570586 0.280931 -0.127962 0.105229 -0.061699 -0.058574 0.438602 -0.227474 -0.129820 0.470863 -0.138945 0.542083 -0.160595 0.709554 -0.150226 -0.073715 -0.249317 0.248875 -0.361660 0.232842 -0.395382 -0.225679 0.061106 0.585827 -0.069353 0.403794 -0.175087 -0.187510 -0.064440 -0.750110 -0.377649 -0.083350 0.414755 0.390137 0.265468 0.246103 -0.211636 0.151534 0.207295 0.525569 -0.034264 -0.477494 -0.065498 -0.312969 0.063693 0.299342 0.482494 0.306532 -0.110708 -0.241361 -0.571647 0.038705 0.360089 -0.451528 -0.284221 0.680716 -0.360432 -1.009848 -0.646436 -0.095573 0.184303 0.018629 0.340282 -0.066027 0.066181 -1.007908 -0.679778 0.009649 -0.145940 0.123952 -0.692749 0.343056 -0.014765 0.128602 0.026205 -0.340187 -0.300761 -0.304364 -0.683621 0.219211 -0.628431 -0.100438 0.002059 0.129907 -0.541818 -0.343028 -0.091234 -0.194133 -0.291134 0.468354 -0.314449 0.298748 0.000515 -0.073879 -0.492416 -0.056133 0.480061 -0.198159 -0.106689 -0.510880 0.056601 0.186401 0.068974 -0.268351 0.224408 -0.130589 -0.459859 0.197391 -0.740460 0.076309 0.224318 0.154513 -0.677294 0.464275 0.360372 -0.651904 -0.140285 -0.200408 0.463259 -0.222373 0.293216 -0.260527 0.079992 0.115614 0.268847 -0.296429 0.059266 0.311689 0.804526 -0.695876 -0.593445 -0.440697 -0.601588 0.355012 -0.795959 0.304020 0.164358 -0.731307 -0.784935 -0.072710 0.337304 0.659822 0.098007 -0.167877 0.424648 0.004174 -0.117955 -0.079775 -0.375650 -0.072203 -0.611177 0.018885 -0.599505 0.093924 0.419935 -0.472728 0.451285 0.308339 -0.587668 0.434428 0.288459 0.472131 -0.230760 0.558990 0.485088 1.171150 -0.508663 -0.593561 0.281140 0.028015 -0.178506 -0.681034 -0.108609 0.039060 -0.530425 0.181282 0.519326 -0.044191 -0.227707 -0.282725 0.267508 -0.032398 0.049770 -0.566146 -0.028841 -0.166402 -0.485585 0.505508 0.029870 0.051802 -0.416798 -0.015607 0.109340 0.133282 -0.256251 0.027974 -0.252983
不 0.590345 -0.228437 0.407446 -0.151592 -0.146381 0.545454 0.398163 0.367769 -0.669901 0.124894 -0.130641 -0.163006 -0.151630 0.440308 0.092811 -0.148482 -0.344095 -0.063930 -0.387902 -0.162671 0.275443 0.402874 0.490192 0.130776 0.312517 -0.145323 -0.164903 -0.217908 -0.349274 0.540125 -0.153165 0.007350 -0.670351 0.006340 0.302197 -0.342700 -0.576576 -0.116323 -0.199462 0.123517 -0.023806 0.248761 -0.033856 -0.698673 0.368485 -0.124576 0.145015 -0.272137 -0.003228 -0.585166 0.414719 -0.131296 -0.262652 0.357961 -0.233775 -0.482677 0.135866 0.115199 -0.409631 0.251894 0.096658 0.115877 -0.325921 -0.267373 -0.008382 0.244402 -0.668386 -0.106826 -0.180626 0.465398 0.116773 0.067586 0.039716 -0.035891 0.131485 0.020413 -0.115346 -0.131398 0.183442 -0.514718 -0.152455 0.307444 0.281446 0.123900 0.302862 0.086819 0.490979 -0.677191 -0.089217 -0.262584 -0.255621 0.028604 -0.241089 0.704625 0.867864 -0.608633 -0.459180 0.222357 0.359457 0.065550 -0.592301 0.482781 0.036776 -0.801512 0.158134 0.381562 0.282557 -0.189246 0.043471 -0.065914 -0.195989 -0.164260 -0.090674 -0.239641 -0.026610 0.534204 -0.373495 -0.123363 -0.842794 0.355927 0.116344 0.164033 0.006775 0.153089 -0.842014 -0.535472 0.185060 0.750735 0.052215 0.022633 0.358508 0.015847 -0.284012 -0.256731 0.175824 -0.671985 0.141951 0.055344 -0.537085 0.006436 0.433585 -0.349777 0.138906 -0.344781 0.764645 0.203111 -0.094982 -0.194933 0.496007 0.251977 -0.090167 -0.031375 -0.410083 0.079370 0.180115 -0.228155 -0.233376 0.131626 -0.438723 0.128391 0.507279 -0.295642 -0.271528 0.459843 -0.121153 0.403076 -0.015684 -0.874694 -0.073578 0.357759 0.273609 -0.256056 0.039112 -0.044330 -0.376196 -0.265702 0.618118 0.214496 0.222326 0.135431 -0.272447 -0.602743 0.244094 0.334261 0.153939 0.670752 0.355026 -0.087271 -0.373321 0.353165 -0.354275 0.082414 0.130475 0.102311 0.675459 0.352391 -0.757503 -0.546624 -0.556307 0.372983 -0.648368 -0.104895 -0.433246 0.560228 0.318956 -0.309342 -0.053392 -0.219564 0.546915 -0.167810 -0.162696 -0.585023 0.038334 -0.081046 -0.140872 0.414276 -0.207257 -0.268720 0.448280 -0.152389 -0.163481 -0.327812 0.154567 0.000989 0.262072 -0.368074 -0.993454 0.092869 0.385957 -0.008767 -0.051460 -0.145227 0.056343 0.066604 0.271079 0.756308 0.525781 -0.126134 -0.518680 -0.526361 -0.413810 0.026662 -0.019124 0.099032 0.291171 -0.501586 0.401559 -0.221171 -0.265142 -0.411141 -0.008313 -0.162265 0.224054 0.125711 -0.216499 -0.316191
会 0.192083 -0.014536 0.224166 -0.223999 -0.509860 0.639110 0.228774 0.100056 0.380477 -0.865032 0.153095 -0.015159 -0.193947 -0.039503 -0.264610 0.400174 0.232024 0.173458 -0.607390 -0.715637 0.471886 -0.314963 -0.244391 0.936171 -0.041488 0.605053 -0.104227 -0.025087 -0.010386 0.332392 -0.067895 -0.817414 0.161918 -0.037780 0.466535 0.165170 -0.332038 -0.109637 -0.225093 0.007348 -0.273768 -0.053491 -0.199345 -0.052180 -0.093961 -0.200054 0.157182 0.069583 0.568791 -0.442521 0.482660 -0.086773 0.279100 0.190838 -0.297931 -0.467762 0.114007 0.959263 -0.458439 -0.145221 0.804194 -0.407510 -0.239894 -0.320567 -0.125701 0.374589 0.109166 -0.129069 -0.157672 0.072366 0.441457 -0.045965 -0.810766 -0.084211 0.409632 -0.238563 0.049061 0.088938 0.219027 0.289875 -0.424135 0.892163 0.366524 -0.111183 0.141794 -0.277883 -0.289309 -0.162971 -0.105591 -0.118908 0.023424 -0.357236 -0.555667 0.242164 0.579136 -0.477847 0.174491 -0.073559 -0.128346 -0.176222 -1.285141 0.118323 0.002593 -0.187360 0.513542 0.505679 -0.057189 0.077307 -0.514286 0.150990 -0.492564 0.410008 -0.258705 0.006375 -0.260353 0.343287 -0.538994 -0.606571 -0.206520 0.702874 -0.070922 -0.445150 0.121708 0.167895 -0.212581 -0.039530 -0.165530 0.281092 -0.275135 -0.254236 0.191923 0.704352 0.212472 0.651805 0.633420 -0.625232 0.249956 -0.355260 0.096202 0.288877 0.268593 -0.305766 0.282728 0.319826 0.502535 -0.456820 0.092590 -0.116423 0.042514 0.114872 0.087656 -0.626204 -0.468650 -0.073769 -0.112961 -0.409090 -0.025448 -0.046027 -0.228580 -0.018615 0.447643 -0.090923 0.268218 0.649604 -0.057010 -0.763360 0.427258 -0.303917 0.008969 -0.132727 0.172878 0.099421 -0.497511 -0.366370 -0.553257 -0.291644 0.982754 0.542252 -0.529462 0.063738 0.133195 0.053932 0.633770 1.106820 -0.028083 0.123614 0.241310 -0.814662 -0.240528 -0.253917 -0.543274 -0.887235 0.430832 -0.022320 0.093069 -0.184800 -0.649846 -0.872233 -0.232706 -0.432134 -0.831607 -0.249014 0.229984 0.086286 0.065269 -1.015817 -0.559445 0.046444 0.600657 -0.492217 0.034615 0.259969 -0.169527 -0.229621 0.024265 0.164992 -0.754523 -0.011238 0.064751 -0.358300 0.459316 0.057126 0.195355 -0.126598 0.228945 0.396333 -0.258865 -0.081788 0.354767 -0.166180 0.382142 0.039854 -0.785940 0.538238 0.131635 0.327341 0.981801 -0.219567 -0.091705 -0.606444 -0.054446 -0.384171 -0.182772 -0.476971 -0.019378 0.281739 0.219745 -0.048098 -0.487510 0.591098 0.425243 0.002654 0.542449 -0.445724 -0.052316 -0.661453
有 -0.024721 -0.086267 -0.371358 -0.160346 -0.157488 0.457499 0.399981 -0.547539 -0.193797 -0.445987 -0.221501 0.221430 -0.696577 -0.578251 -0.106396 0.198924 0.697976 -0.916213 -0.368519 0.015738 0.248487 -0.492231 0.209030 -0.297221 -0.286820 -0.087679 -0.395312 -0.129891 -0.427117 0.338731 0.126321 -0.463132 -0.279940 -0.272302 0.585228 -0.459973 0.155542 -0.850048 -0.342750 0.166863 0.397288 0.890033 -0.544073 0.099755 -0.223058 -0.598425 0.125990 0.179895 0.964792 0.353615 0.376253 0.686734 -0.219086 0.535809 0.494395 0.122453 0.353422 -0.111205 -0.120826 0.482611 0.024584 -0.147558 0.087207 0.397257 -0.044452 0.134051 0.476382 0.203482 0.059787 -0.161630 0.455813 0.443364 -0.702968 -0.309449 0.300482 -0.271069 -0.024123 -0.499992 0.037167 -0.091372 -0.006765 0.280630 -0.297825 -0.446436 0.474702 0.196992 0.293189 0.287799 -0.141255 -0.507578 0.087200 0.093374 -0.328995 0.536255 0.570375 -0.021847 -0.447626 -0.445777 -0.298526 0.328125 -0.605603 0.310820 -0.000787 -0.059369 0.265387 -0.009017 0.170226 -0.365162 -0.608404 -0.362635 0.128300 -0.654241 -0.592915 -0.530791 -0.254417 -0.179159 -0.280663 0.076127 -0.277285 -0.145952 -0.081119 0.079646 -0.269077 -0.317490 -0.739705 0.549262 -0.743139 0.411833 -0.174359 -0.468844 0.495439 -0.556213 0.258392 0.125966 -0.496448 -0.693096 0.261971 -0.685493 -0.022324 -0.018663 0.753757 -0.341085 0.820545 -0.761299 0.485728 -0.560902 0.118344 0.294925 -0.192406 -0.033942 0.295408 0.008209 -0.199360 -0.115432 0.123980 -0.051783 -0.354844 0.004900 -0.157349 0.129691 0.250840 0.060419 -0.905478 0.062062 0.097534 -0.563885 0.571187 0.264608 -0.514548 -0.042857 0.307947 0.200257 0.105732 -0.112363 -0.374097 0.112266 0.309850 0.245758 0.056687 -0.619822 -0.324661 -0.389481 0.103385 0.680824 0.615890 -0.566575 0.482915 0.723241 -0.731628 0.530567 -0.239615 -0.876123 0.395943 -0.465325 0.540669 0.322766 0.068981 0.033854 -0.238344 0.297973 -0.530196 0.484243 0.699840 0.185205 -0.052755 0.402143 0.158976 0.053709 0.497930 -0.181181 -0.816989 -0.609950 -0.345055 0.161802 -0.380677 0.381208 -0.973549 0.694958 0.124696 -0.157725 0.157794 -0.629515 0.110765 0.972761 0.024287 -0.393782 -0.163593 -0.448019 0.370165 -0.044027 -0.050563 -0.293428 0.451176 -0.023709 -0.144735 0.191114 0.103511 -0.102950 -0.160259 -0.019693 -0.560934 -0.064940 -0.261871 0.035224 0.154484 -0.370661 0.297439 0.636356 0.081949 0.254224 -0.183095 -0.588000 0.848972 -0.046408 0.328883 -0.075258
我 0.366684 -0.577195 -0.073255 -0.321018 -0.296187 0.161014 0.066931 0.334315 -0.252835 -0.091962 0.564686 0.058204 -0.224065 -0.251545 -0.047053 0.286426 0.232143 -0.051533 -0.571915 -0.083041 -0.104479 0.080622 -0.028240 -0.181790 -0.837852 -0.162595 -0.065196 -0.121388 -0.558911 0.099481 0.414123 -0.252359 0.195272 -0.420318 0.407017 -0.440190 0.239447 -0.205516 -0.004744 0.105294 -0.004668 0.299281 -0.190733 -0.530405 -0.013481 0.234320 -0.195186 -0.454142 0.136809 -0.121394 0.651241 0.097106 -0.948533 0.378207 -0.379174 0.149269 0.183846 0.334344 -0.347272 0.027738 0.283007 -0.037186 0.378382 0.225718 -0.041890 0.056501 0.215884 0.443748 -0.299454 0.410457 -0.023179 0.448872 -0.201137 0.154521 0.266197 -0.262273 -0.254502 -0.583994 0.285172 0.158498 -0.129160 0.057344 0.462244 0.321047 0.130015 -0.043921 0.454584 -0.151757 -0.271527 -0.435247 0.215001 -0.264824 -0.178405 0.457539 -0.119578 -0.640550 -0.395297 0.468930 -0.302884 0.235992 -1.009453 0.755329 -0.162329 -0.776765 0.176018 0.487753 0.386774 0.036369 -0.482425 -0.344407 0.249643 -0.439368 -0.323469 -0.832662 0.319003 -0.267632 -0.349325 -0.310915 -0.341380 0.256266 -0.444894 0.119536 -0.088179 0.200428 0.175817 -0.318293 -0.506538 0.571302 0.120878 -0.187785 -0.092177 -0.213805 0.040935 -0.324894 0.114716 -0.047321 -0.252179 -0.078480 0.359717 0.260561 0.308880 -0.421106 0.006942 -0.026614 0.411878 -0.615529 -0.100040 -0.191452 0.674651 -0.193397 -0.018646 0.095115 -0.682088 0.171960 0.069075 -0.331982 -0.631600 0.100686 0.363014 -0.275742 -0.398268 0.114276 0.303217 0.378833 -0.248854 0.034287 0.017108 -0.512144 0.235034 0.354933 0.732539 -0.033075 0.128323 0.370817 -0.672894 0.080509 0.404895 -0.247779 -0.116493 -0.201850 -0.156254 -0.319189 0.065430 0.293096 0.766312 0.119260 0.313954 -0.089789 0.156507 0.076532 -0.401445 0.071955 0.527937 0.126639 0.199620 0.053771 -0.257506 -0.168478 -0.466816 0.500350 -0.520740 -0.117942 -0.111677 -0.201297 -0.165544 -0.397831 0.732888 -0.609788 0.089492 -0.396789 -0.708872 -0.153680 -0.041308 0.456319 -0.151010 0.013074 -0.214373 -0.318998 0.866644 -0.008904 -0.300658 -0.220598 0.533980 0.032402 0.362963 -0.327033 -0.295430 0.075496 0.068337 0.137162 -0.858934 0.027931 -0.543051 -0.055029 0.071833 0.397461 0.369709 0.362084 -0.041652 -0.329538 -0.609883 -0.093935 -0.284014 0.132242 -0.335251 0.031764 0.581838 -0.616234 -0.110340 -0.138825 -0.013354 0.146852 -0.062164 -0.254281 -0.349752 -0.346502
， 0.308732 -0.613161 0.518801 -0.799719 -0.206513 0.271672 0.291894 -0.095997 -0.176860 -0.109601 0.503240 0.670121 0.018494 -0.054525 0.228882 -0.174946 -0.308474 -0.119191 0.004489 -0.200444 0.291325 -0.282355 -0.284562 -0.253503 -0.298065 -0.150279 -0.111796 0.024404 -0.009502 0.460933 0.863011 -0.258391 -0.054914 0.554974 0.204974 -0.598501 -0.044729 -0.337609 -0.011443 0.200982 0.467611 0.337580 -0.235478 -0.083234 -0.197260 -0.374844 0.049262 -0.000840 -0.266718 -0.221084 0.799013 -0.528171 -0.209472 -0.039275 -0.241658 -0.548574 0.097358 0.180423 0.173291 0.353857 0.434335 -0.327349 0.014440 0.065043 0.055519 0.104314 -0.142870 0.145344 -0.507868 0.129728 0.183569 -0.048513 -0.581136 -0.843334 -0.084095 0.119620 -0.160964 -0.104611 0.370080 -0.328662 0.280069 -0.328756 -0.119117 0.192408 -0.123481 -0.187292 -0.024819 -0.384621 -0.270884 -0.213459 -0.224454 -0.203438 0.006372 0.225870 0.448257 -0.709316 -0.238610 -0.334201 -0.034567 -0.218280 -0.334506 -0.103454 -0.327298 -0.916273 0.057046 0.677477 0.610364 -0.415114 -0.441030 -0.280918 0.158902 0.041700 -0.018328 -0.013975 0.063780 0.597634 -0.042429 -0.428877 -0.101198 0.228916 -0.054300 0.172403 0.147387 0.203614 -0.255662 0.687153 -0.048518 0.330038 -0.116761 -0.188431 -0.168973 -0.149656 0.050119 0.100948 0.191821 0.145255 -0.267948 -0.552964 -0.479775 0.012834 0.384826 -0.940371 -0.166627 -0.487879 0.626299 -0.447532 -0.490997 -0.089379 0.144447 0.020585 0.096432 -0.214477 -0.096960 -0.091186 0.026369 0.094206 -0.401096 0.169389 -0.064757 -0.351398 0.260213 -0.372371 -0.669924 0.283071 -0.184626 -0.090665 0.351223 -0.312643 0.017314 0.154770 -0.109801 0.039146 0.193492 -0.110612 0.028911 -0.099211 -0.018048 0.335752 0.408608 0.493914 -0.174788 -0.734982 0.040342 0.522451 0.392530 0.028932 0.016515 0.155177 0.389411 0.363136 -0.117986 -0.537477 0.397293 -0.577515 -0.230249 0.281357 -0.414959 -0.589924 -0.369371 0.082936 -0.912193 -0.297088 -0.261792 -0.056397 -0.307238 -0.407639 0.514561 -0.363935 0.336025 -0.212689 -0.570974 -0.623236 -0.654315 -0.252777 0.207096 0.347299 -0.539882 0.127144 0.575910 -0.150463 0.037518 -0.025623 0.273566 0.384312 0.572271 -0.294802 -0.273978 -0.099834 0.666907 -0.140187 -0.681962 0.036651 -0.488025 0.530084 -0.223346 0.053821 -0.295311 0.245436 0.164804 -0.468697 0.238672 -0.435484 0.313996 0.095352 -0.151478 0.127928 0.541319 -0.252567 -0.486840 0.312674 -0.347800 -0.193885 0.723684 -0.142826 -0.478705 0.001383
一 0.547484 0.143282 0.050219 -0.425102 -0.037517 0.473852 0.147217 -0.199156 0.158053 -0.241430 0.510528 -0.117360 -0.520692 -0.455413 -1.075038 0.121562 0.171869 -0.389164 -0.734006 0.080312 0.047074 -0.166858 0.109628 -0.151026 0.275434 0.219652 0.187560 0.336193 -0.859871 0.569847 0.186153 -0.285886 -0.241628 -0.183971 0.810580 -0.313150 0.007795 -0.303475 -0.143537 0.362035 0.186406 0.260803 -0.420334 0.085693 0.023862 -0.278240 0.263783 -0.209896 -0.023346 -0.033037 -0.123763 -0.274377 -0.037751 0.356254 0.267798 0.158392 0.133444 0.373410 -0.574518 0.192370 0.328391 0.375635 -0.437245 -0.019051 0.051017 0.087098 -0.784426 -0.031536 -0.704757 0.356727 0.260052 0.324718 0.275858 0.117865 -0.438557 -0.414232 -0.223762 -0.174226 0.123795 -0.027393 -0.254099 -0.152470 0.804803 -0.057900 0.380409 -0.494586 -0.079068 -0.731100 -0.380913 -0.289263 0.326773 -0.158980 0.427089 0.062722 0.171903 0.146381 -0.477444 0.531649 -0.044877 0.396828 -0.732265 1.087862 -0.513757 -0.360621 0.641084 0.462400 0.801385 0.268802 -0.614290 0.418906 -0.518150 0.682644 -0.392838 -0.622759 -0.248701 -0.079510 -0.088283 -0.405698 0.504793 0.029641 -0.186227 -0.488515 -0.434721 -0.245707 -0.271517 -0.129190 -0.555241 0.761563 -0.013973 0.121761 -0.106794 -0.422506 0.346736 -0.129883 -0.098625 0.596349 -0.294793 -0.638246 -0.579218 -0.252532 0.351234 -0.479447 0.145502 -0.484609 -0.026543 -0.211831 -0.845194 -0.098951 0.350386 0.255527 0.214960 0.014600 -0.786559 -0.012544 -0.291020 0.180459 -0.265704 -0.736030 -0.225809 -0.155169 0.393241 -0.399785 0.011216 0.476570 -0.213575 0.216938 -0.122714 -0.360236 0.017466 0.529795 -0.095237 -0.999283 0.164220 -0.218374 -0.574889 -0.010782 -0.412434 -0.037651 -0.319698 0.105666 -0.397739 -0.719186 0.118731 0.387732 0.267529 0.314238 0.790972 0.228090 0.013884 0.018121 -0.226164 -0.839242 0.095126 -0.001458 0.015580 0.013219 -0.926966 0.003074 -0.107750 -0.039683 -0.130990 0.273804 0.927667 0.464492 -0.043012 -0.181956 0.464787 0.080758 0.343225 0.035645 -0.484849 -0.465621 -0.114782 -0.613203 0.410449 0.087715 0.199801 -0.109174 -0.278128 0.141575 0.067617 -0.109702 0.590566 0.007601 0.169030 -0.079382 -0.433498 -0.044699 -0.046980 0.368224 -0.196248 0.257448 0.634760 0.486116 0.490327 0.140489 0.243341 -0.237915 0.031783 -0.200927 -0.200613 0.133812 0.002586 0.287196 -0.189408 -0.148589 0.538350 -0.041969 0.620605 0.299798 0.140372 -0.370846 -0.143304 0.168349 -0.512085 -0.250381
了 0.109907 -0.656684 0.546538 0.063974 -0.337135 -0.119373 0.312961 0.130879 -0.199798 -0.292214 0.417162 0.381598 -0.392891 -0.349554 0.024534 0.028287 -0.184082 0.020337 0.194315 -0.925252 -0.079748 -0.033678 -0.304928 -0.429032 -0.657372 -0.521978 -0.769410 -0.526627 -0.585177 0.114958 0.327774 -0.181422 -0.119373 0.133924 -0.675387 -0.368992 -0.522379 -0.197057 0.028516 0.156103 0.376460 0.771017 -0.562614 -0.389169 -0.386428 -0.109055 -0.116976 0.375907 0.548363 -0.392586 0.370361 -0.150558 -0.495462 0.227896 0.275875 -0.197352 0.119742 -0.192355 0.085281 0.027356 0.336765 0.140036 0.245722 -0.428175 -0.484971 0.017750 -0.269631 0.173973 -0.517445 -0.091155 -0.258456 0.503110 -0.344528 -0.509469 -0.020175 -0.085675 -0.669004 0.084006 -0.195118 0.005193 -0.496702 0.356901 -0.009586 0.275071 0.618122 -0.288503 0.135725 -0.382524 -0.272576 -0.450521 -0.391266 0.334857 0.103492 -0.034192 0.698309 -0.355646 -0.171999 -0.187567 -0.234836 -0.053196 -1.090252 0.162784 -0.086077 -0.123239 0.243036 -0.320740 -0.210372 -0.090249 -0.090949 -1.059358 -0.078273 0.023404 -0.507517 -0.034919 -0.389077 0.092039 -0.474584 0.043290 0.110277 0.579160 -0.228569 0.242685 0.130086 0.340688 -0.412265 0.067856 -0.527672 -0.083243 0.138785 -0.047063 -0.204245 -0.284444 -0.004477 0.097244 0.355723 0.203687 -0.197003 -0.680079 0.290171 0.481585 0.341308 -0.654106 0.804077 -0.132395 0.144584 -0.400935 0.013770 0.053152 -0.239665 0.704043 0.178429 0.040365 -0.314990 -0.166789 0.184615 -0.067768 0.217369 0.092754 0.020228 -0.807820 0.413744 0.227947 0.010316 0.460703 -0.118714 0.385283 0.094712 -1.100112 -0.196202 0.655853 0.198980 -0.119260 -0.000322 0.288787 -0.483383 0.121854 0.254372 0.154610 0.171190 0.298134 -0.298857 0.055262 -0.203961 0.009572 0.484295 0.761605 0.281903 -0.031304 -0.485990 0.075679 -0.014463 -0.605403 0.450985 0.011054 0.004411 -0.224242 -0.751856 -0.361554 -0.305854 -0.065981 -0.309099 -0.077096 0.508213 0.230185 0.020412 -0.127748 0.286755 0.001105 0.241302 0.291217 0.040624 0.020802 -0.256050 0.214282 -0.058960 0.504443 0.085141 -0.312703 -0.103229 -0.457062 -0.090914 0.051029 -0.252861 0.253967 0.858592 0.048188 -0.195347 0.251625 0.348861 -0.113600 0.012245 -0.410613 -0.424816 0.817596 0.423246 0.229484 -0.300797 0.279550 0.164114 0.007556 -0.023764 -0.398959 0.538005 0.423174 -0.014217 -0.392973 0.785970 -0.018536 -0.308588 -0.567387 -0.666933 0.115914 0.046068 0.145065 -0.004881 -0.665461
否 0.307085 -0.337403 0.304440 -0.148852 -0.881753 0.144710 0.318584 -0.679891 0.740163 -0.431841 -0.476376 0.586821 -0.039217 0.107256 0.039472 -0.117275 0.302357 -0.475639 -0.798535 -0.019738 0.292281 0.124994 -0.485762 0.130830 -0.666687 -0.065607 0.151373 -0.307067 -0.187387 0.446727 -0.385053 -0.286059 0.577673 0.036906 0.914408 -0.123628 -0.197019 0.156938 -0.649082 0.454162 0.351414 0.601951 -0.073897 0.363799 -0.834685 -0.308502 -0.290461 0.734730 0.199597 -0.501388 -0.067184 -0.161760 -0.270979 -0.275385 0.094670 -0.481122 0.330909 -0.168708 0.122679 0.343789 -0.306764 -0.074708 0.184123 -0.479111 -0.336466 -0.045186 -0.105284 -0.048785 0.640248 0.251715 0.589054 -0.228561 0.038837 0.166331 -0.118884 -0.578528 0.397743 -0.621127 0.528658 -0.216048 -0.029739 -0.118633 -0.145277 -0.074152 0.524729 0.441047 0.108671 0.049390 -0.162549 -0.223781 -0.022121 0.024159 -0.123606 0.058124 0.521116 0.109869 -0.248566 -0.154641 0.494361 0.299250 -0.399946 0.433809 -0.544415 0.136702 0.176113 0.372991 -0.069452 -0.398413 -0.264897 -0.430034 -0.741804 -0.585182 0.068848 -0.571439 0.465887 -0.180126 -0.829096 -0.415031 -0.516185 0.175853 -0.055703 0.339438 0.326176 0.097755 -0.784100 -0.109530 -0.045516 0.025065 0.045964 -0.323954 0.177425 -0.085260 -0.482982 -0.121974 -0.165482 -0.371248 -0.141421 -0.832258 0.465732 -0.157655 -0.438871 0.208573 -0.278448 -0.307834 -0.214398 -0.124995 0.015970 -0.286901 0.069978 -0.093441 0.665617 0.306608 -0.212632 0.014846 -0.127204 0.139748 0.017335 -0.551747 -0.755663 0.335428 0.651889 0.473025 -0.771047 0.504838 -0.143895 -0.401238 0.304339 -0.183773 -0.185384 -0.110095 0.445323 0.062295 -0.338541 0.373051 -0.240063 0.032903 -0.517112 0.031166 0.219868 0.132438 -0.693988 0.088324 0.517471 -0.050990 -0.077705 0.162776 0.430182 0.758194 -0.443235 -0.676787 -0.322845 -0.889464 -0.058809 -0.369103 -0.008875 0.590630 -0.324728 -0.708769 0.100825 0.063910 0.009274 0.123678 0.245018 0.215126 -0.686808 -0.294871 -0.343382 -0.138862 -0.287175 -0.121554 -0.341177 -0.257657 0.058404 -0.140239 -0.191602 0.368906 0.302869 -0.225793 -0.069355 0.024600 0.543328 -0.154051 0.623751 0.668550 0.480663 0.149835 -0.804880 0.566504 0.208373 -0.931571 -0.136994 -0.077149 0.104180 -0.038396 -0.060328 0.670510 -0.343029 -0.254067 -0.108712 -0.049265 -0.049525 -0.068915 -0.829169 -0.280287 -0.591486 -0.665811 0.227480 -0.016197 -0.067315 -0.142884 0.589718 -0.052230 0.665075 -0.231564 0.112224 -0.430060
在 -0.170037 0.273773 -0.163474 -0.396070 -0.203727 0.210621 -0.002393 -0.204919 0.196054 -0.503956 0.522407 -0.164732 -0.110865 -0.282585 0.108989 -0.275269 0.507026 -0.379138 0.516361 0.197318 0.292380 0.501647 0.108275 0.324001 0.456894 0.442122 -0.035863 -0.177413 -0.073246 0.548751 0.209796 -0.794953 -0.013641 -0.095193 0.217879 -0.260664 -0.128593 -0.473241 0.182635 0.218875 0.295596 0.277540 -0.468246 -0.653878 0.220413 -0.245804 0.512453 0.118338 0.251295 -0.189372 0.057203 0.242497 -0.374253 0.114116 0.174044 0.030330 -0.350288 0.094022 -0.405663 -0.076870 -0.487556 -0.567456 0.160126 0.197087 -0.032382 0.158930 -0.158349 -0.301853 0.094388 0.003068 0.401105 -0.285320 -0.453758 0.105141 -0.054640 -0.278067 -0.062975 -0.051955 0.562389 -0.211183 -0.238517 0.416430 0.094532 0.277376 0.198541 -0.274346 -0.009155 -0.555088 -0.251213 -0.284670 0.337101 0.042044 0.874106 0.402821 0.377140 -0.183550 0.655388 -0.118271 0.002109 0.119747 -0.956513 0.260685 0.083143 -0.700261 -0.099768 0.346144 0.372965 -0.264489 0.097134 -0.580772 -0.376495 0.609448 0.203718 0.030090 0.236568 -0.014980 -0.323903 -0.436587 0.339884 0.011302 0.268241 -0.254238 -0.345155 0.249200 -0.249453 -0.399022 -0.221742 -0.418653 0.724314 0.137584 -0.037158 0.056996 0.555548 0.270676 -0.292313 -0.118153 -0.366616 -0.312701 0.122037 0.075779 0.087129 -0.255805 0.774307 -0.283489 0.378616 -0.050418 0.074683 -0.269499 -0.033162 -0.032349 0.092499 -0.020860 -0.310575 0.252262 -0.155107 -0.018836 0.005220 -0.206278 -0.348348 -0.299096 0.569034 -0.733353 0.340344 0.413891 0.375217 -0.057539 -0.213529 -0.440823 0.498715 0.309035 -0.093808 -0.146847 -0.212574 0.441991 -0.549243 -0.396342 0.691787 0.106918 -0.714906 -0.066049 -0.089776 -0.278090 0.611584 0.205710 0.124866 -0.076648 0.011461 0.248004 -0.428518 -0.421526 -0.473831 -0.393300 0.255695 -0.652671 0.288181 -0.271371 -0.388892 -0.094550 -0.423225 0.394916 -0.081622 -0.122325 0.010502 0.405544 -0.078730 0.032824 0.272777 -0.604589 0.143464 -0.069242 -0.163217 -0.165479 0.016725 0.453630 -0.330335 0.862211 -0.329727 -0.166719 0.516014 -0.007867 -0.053255 -0.134107 0.905017 -0.032367 -0.230662 -0.162911 -0.837716 -0.301871 -0.045234 -0.157187 -0.711392 -0.218042 -0.075363 0.371625 -0.067288 0.475170 -0.189242 -0.198640 0.201078 -0.790349 -0.311526 0.026288 0.222177 -0.511505 -0.464549 -0.173368 -0.182030 -0.276295 -0.188167 -0.130337 -0.369862 -0.519214 0.343443 0.386492 -0.156571 -0.524881
时 -0.173407 0.048182 -0.166853 -0.658001 -0.513698 0.379237 -0.096211 -0.251128 0.168341 -0.282434 -0.117349 0.196564 0.505659 -0.323525 -0.250451 -0.001074 0.869849 -0.032369 -0.179165 0.081711 0.142629 0.238517 -0.074181 0.203580 -0.550463 -0.335940 0.124555 -0.221212 -0.570028 -0.008239 0.498140 -0.262074 -0.082847 -0.091936 0.251685 -0.096682 -0.239810 -0.009634 0.505822 -0.353267 -0.219774 0.323555 -0.168255 -0.225914 -0.759611 0.011798 0.261313 -0.629574 0.240987 -0.721001 0.464803 -0.141343 0.237383 0.119395 -0.261637 -0.160280 -0.331373 0.149876 -0.508876 0.041607 0.778218 -0.417983 0.319547 0.330689 0.006949 0.042257 0.072341 -0.277378 0.031694 0.353546 0.019789 0.187400 -0.719214 0.041649 0.127942 -0.066931 -0.206323 0.014496 0.189954 0.053798 -0.621578 0.194248 0.136617 0.301721 -0.019268 -0.022383 0.198504 -0.293379 -0.791397 -0.503320 -0.063311 0.503052 0.051601 0.323026 0.485037 -0.360446 0.168754 -0.327711 -0.047751 0.549648 -0.790991 0.109606 0.357801 0.230578 0.212576 -0.028891 -0.398079 0.298049 0.057511 0.162074 -0.404257 -0.109628 -1.093817 -0.887309 -0.027337 0.268551 -0.117653 -0.021671 -0.230513 0.357095 -0.054526 -0.171644 -0.014598 0.132840 -0.764099 0.131436 0.058000 -0.006180 0.534223 -0.225933 -0.153119 0.174935 0.048689 0.071156 -0.336585 -0.283900 0.488883 -0.735248 -0.609750 -0.359869 -0.248808 -0.426979 0.541259 -0.006836 0.787489 -0.210560 -0.014296 0.495575 0.239062 -0.074623 -0.340136 -0.170871 -0.192070 0.104209 0.426719 -0.206581 -0.060580 -0.204528 0.026758 -0.122261 0.731136 -1.025541 -0.435418 0.088097 0.014763 -0.745995 0.056449 -0.661056 0.103948 0.484020 0.087657 -0.063181 -0.007986 -0.132590 -0.163241 -0.215380 0.459186 -0.196292 -0.508308 0.121434 0.192328 -0.528770 1.084075 0.243457 -0.335610 0.090856 -0.190557 0.013328 -0.398412 0.043318 -0.561080 -0.368132 0.335626 0.125517 0.431842 0.561575 -0.430468 -0.512644 -0.345582 0.056841 0.258370 -0.572947 -0.431091 0.316115 0.046019 -0.062084 -0.135275 0.339403 0.051695 -0.635772 -0.638628 -0.112203 0.013183 -0.786261 0.102155 0.418232 -0.372907 0.024692 -0.518732 0.019508 0.125352 0.256361 0.376818 -0.092443 -0.013309 -0.367964 -0.123854 -0.459238 0.564865 -0.450213 -1.027864 -0.257750 -0.222154 0.107943 -0.930185 0.218418 0.023092 0.005351 0.046083 -0.279647 0.487494 -0.076094 0.592945 -0.174569 -0.948657 -0.461352 0.018861 0.067531 -0.813026 0.398638 -0.105394 0.068746 0.476102 -0.523348 0.170006 -0.758142
为 0.027051 -0.471850 0.134683 0.187654 -0.244375 0.520121 0.383070 -0.215751 -0.226343 -0.367193 0.052901 0.485066 0.653052 0.204511 0.355127 0.456303 0.417945 -0.376515 -0.296272 0.279286 0.294133 0.505487 0.170127 0.048650 -0.587024 0.326165 -0.193805 0.415008 -0.236580 0.675095 0.242626 -0.198067 -0.179950 -0.397523 0.037441 -0.464078 0.170561 0.207316 -0.208050 0.116055 -0.127156 -0.469978 -0.991420 -0.468166 -0.648669 -0.915129 -0.074909 0.159315 0.438150 -0.360907 0.189155 0.537747 -0.699179 0.465700 -0.102887 0.427724 0.013081 0.053164 -0.020712 0.293386 0.132494 -0.044988 0.357916 -0.019771 0.226893 0.058904 -0.162505 0.097990 -0.058268 0.190946 0.217905 0.196957 -1.058816 -0.183294 -0.510706 -0.432379 -0.071056 -0.007066 0.232364 -0.080097 -0.718062 0.614810 0.245311 0.122703 -0.104501 0.212873 -0.096587 -0.340927 -0.152772 0.359756 -0.242840 0.271128 0.243927 0.462231 0.599002 -0.154407 -0.008273 0.337257 -0.137702 0.009113 -1.075230 0.509286 0.068371 -0.100575 0.467215 -0.230330 -0.504328 0.161398 0.262820 -0.331238 -0.360385 0.417006 0.250369 -0.364213 -0.881461 0.084317 -0.796361 -0.429696 0.118144 0.399863 -0.135090 -0.173530 0.468097 0.124045 -0.189900 -0.617489 -0.113570 -0.101241 0.107406 -0.038104 0.390231 0.011887 -0.083441 -0.139241 -0.183026 -0.078987 -0.120419 -0.415961 0.601159 0.017391 -0.255046 -0.220538 -0.097372 -0.166401 0.737359 -0.568428 -0.018264 -0.050773 -0.528530 -0.063812 0.197832 -0.275932 -0.157730 -0.245104 -0.073775 -0.225960 0.097042 -0.320486 -0.201620 -0.526801 -0.035155 -0.040056 0.288782 0.688566 0.338646 0.160929 -0.349776 0.000898 -0.170788 0.590934 -0.063968 -0.301447 -0.102041 -0.004951 -0.107532 0.284144 -0.062352 0.374933 -0.379774 0.571448 -0.395943 0.003080 0.073628 -0.166528 0.222525 -0.142223 0.179448 -0.093172 0.477161 0.142617 0.067033 -1.152506 -0.095279 0.075896 0.429132 0.323821 -0.836904 -0.247879 0.419621 -0.464255 -0.467752 -0.050553 -0.013241 0.202094 0.052376 0.226565 0.098386 -0.309902 0.015723 -0.834874 -0.384206 -0.210689 0.278312 -0.261811 0.031819 -0.108534 0.057385 -0.113791 -0.076476 0.085833 0.283409 0.178968 0.201857 0.317672 0.586005 0.266389 -0.292372 -0.069803 0.357573 -0.595551 0.123108 0.102365 -0.083121 0.689312 0.438702 -0.034697 0.428480 0.056778 0.121876 -0.251085 -0.334578 -0.385734 -0.142301 0.144134 0.081492 -0.265822 0.104272 -0.038460 -0.520937 -0.870093 -0.036384 0.029911 -0.332559 -0.447738 -0.067237 0.012676
健 -0.166896 -0.402985 0.628008 0.116960 -0.432454 0.148748 0.029029 0.258046 0.099001 -0.070425 0.215705 0.434058 0.291090 0.384213 0.149348 0.196874 0.146280 -0.191138 -0.545183 -0.380194 -0.382327 0.109660 0.410615 0.060850 -0.493299 -0.017005 0.150282 -0.356903 -0.019119 0.517850 0.349102 -0.147788 0.032972 -0.070384 -0.149238 -0.770632 -0.100765 0.236330 -0.422473 0.724749 -0.097858 -0.376720 -0.622935 0.580467 -1.077903 -0.294277 -0.535481 0.335864 0.214739 -0.409247 0.139140 -0.092489 -0.227638 0.072619 0.252878 -0.760213 0.277771 0.126075 0.135358 0.415809 -0.290770 -0.218736 0.104756 -0.375443 -0.431576 0.204310 0.206276 0.020842 -0.149178 -0.235038 0.630249 0.652180 -0.557049 -0.266666 -0.292569 -0.727518 0.095184 0.045196 0.338424 0.187066 0.062420 -0.058586 0.302825 -0.298609 0.290478 0.186911 0.324922 -0.337536 -0.261448 -0.572112 -0.085246 0.213454 0.152124 -0.141083 0.427784 0.335070 0.116155 0.339982 -0.337821 -0.303761 -0.814011 0.073052 -0.338232 -0.148929 0.551405 0.325206 -0.258413 0.415924 -0.821175 -0.944024 -0.105658 -0.281633 -0.502843 -0.548299 0.135493 -0.223559 -0.262846 -0.411905 0.139278 -0.011966 0.289783 -0.147486 0.689042 0.145991 0.033286 0.307547 -0.151269 0.692081 0.068613 -0.277802 0.315588 -0.163686 -0.006210 0.077856 -0.427867 0.040052 -0.208090 -0.179033 0.243199 0.140649 0.410775 -0.648394 0.225478 -0.014695 0.494412 0.310732 -0.074999 0.157762 -0.164835 -0.100330 0.220602 -0.017018 0.070837 0.371294 -0.016678 -0.176682 0.013633 -0.763741 -0.566753 -0.421607 0.396383 0.153136 -0.450109 0.096448 -0.189586 -0.187541 -0.489265 -0.260856 -0.546204 0.257408 -0.435709 0.193483 -0.225402 0.575986 -0.142741 0.293201 -0.072655 0.394050 -0.132302 0.116472 -0.433592 -0.084216 0.723697 0.298923 -0.229816 0.218878 -0.089119 0.267124 -0.296609 -0.202855 0.419914 -0.691115 0.022543 0.162302 -0.420513 -0.029159 -0.164138 -0.023012 0.204683 0.277041 -0.496969 -0.014524 0.079624 0.209096 -0.448009 -0.329514 -0.473943 -0.707589 0.267770 0.435161 -0.026973 -0.120591 0.444029 -0.136053 0.155536 0.136212 -0.271148 -0.120598 -0.091118 -0.177645 0.088680 -0.278319 0.256261 0.734645 0.133363 0.288423 -0.411986 0.101148 0.137460 -1.056668 -0.289316 0.665390 -0.954249 0.515615 -0.258544 0.438803 -0.542135 0.056168 -0.188248 -0.276799 -0.255793 0.116994 -0.533085 0.302452 -0.171362 -0.371673 0.493692 0.183996 -0.201071 -0.069644 0.591930 -0.481441 -0.211899 0.291299 0.304449 -0.413271
好 -0.043120 -0.564402 0.526175 -0.372401 -0.079530 -0.086174 0.566637 0.105430 0.033162 -0.328861 0.630641 0.244692 -0.844837 -0.673030 0.337051 0.480223 0.417472 -0.209055 0.044205 0.198942 0.370236 -0.298524 0.743484 0.320228 0.024352 -0.017300 0.107314 -0.447504 -0.573313 -0.066948 0.781808 -0.106806 -0.431800 0.271898 -0.043630 0.151160 0.024096 -0.531661 0.071771 0.415849 0.309034 0.610328 -0.654595 -1.021418 0.026551 -0.029130 -0.019325 -0.164668 0.945135 -0.122878 0.714569 -0.027262 -0.274212 -0.214633 -0.083812 -0.284392 0.161696 0.038171 0.594662 0.397442 0.537360 0.533966 0.378225 0.095570 -0.055114 0.354000 -0.053921 0.278502 -0.603713 0.449884 0.379999 0.183703 -0.383398 0.373324 0.055260 -0.460190 0.435904 0.007641 0.269729 0.166880 -0.331581 0.007949 0.309359 0.160025 0.046219 0.204329 0.476048 -0.407534 -0.121121 -0.636747 -0.207097 0.028797 -0.082611 0.272974 0.302851 -0.027191 -0.079528 0.233148 -0.582807 0.620930 -0.341277 -0.033838 -0.259534 -0.417168 0.407920 0.291569 0.666959 0.022708 -0.692801 -0.299425 0.394643 -0.020107 0.192618 -0.101250 0.378949 0.176657 -0.473989 0.169042 -0.436397 0.275520 -0.016963 -0.226008 0.491903 -0.106555 -0.552101 -0.160155 0.218158 0.154409 -0.138218 0.546754 0.039180 0.074045 -0.319128 0.146064 0.078233 -0.191718 0.048812 -0.265778 -0.198514 -0.469870 0.269410 -0.143254 0.339622 0.003738 0.326352 -0.652863 -0.180385 -0.285623 0.134082 0.320237 -0.032920 0.203949 -0.366148 0.338083 -0.372826 0.156738 0.017904 -0.292113 -0.574885 -0.306199 0.196060 0.438997 -0.113858 0.291801 0.133725 -0.122389 0.437421 -0.340396 -0.255124 -0.257438 -0.350454 0.520224 -0.147456 0.624167 -0.381984 -0.295719 0.159255 0.068574 0.127964 -0.534618 -0.334852 -0.063386 0.395002 1.010772 0.111032 -0.236543 0.164109 0.721289 -0.120873 0.133595 -0.174662 -0.424209 0.445018 0.135841 0.735358 -0.252961 -0.585683 -0.300429 -0.276187 -0.452924 -0.751792 -0.095819 0.082876 0.085050 0.302454 0.439120 0.265744 -0.193620 0.218294 -0.244689 0.035057 -0.392380 -0.475116 0.600326 -0.516159 -0.117252 -0.149214 0.396975 -0.401421 -0.312944 0.034027 -0.863480 0.006099 -0.254988 0.773672 -0.258352 -0.181407 0.197324 -0.129844 -0.475756 -0.980790 -0.092056 0.218644 0.609679 0.542100 -0.016173 0.089060 -0.044049 -0.131674 -0.405052 -0.233638 -0.523847 0.130940 0.558333 -0.242902 0.268844 0.251637 -0.378429 -0.343082 0.161120 0.043883 0.000302 0.008689 -0.143786 -0.064411 -0.047696
得 0.310933 -1.087250 0.316837 -0.221046 -0.436690 -0.283648 0.127404 0.275198 -0.459528 0.212220 0.116410 0.730773 -0.024710 -0.354577 -0.212751 0.566943 -0.201401 -0.013994 -0.469916 -0.177085 0.359222 -0.353827 0.018586 0.453809 -0.104753 -0.447430 0.421730 -0.083644 -0.300787 0.422919 0.572083 -0.297399 -0.914222 0.125311 -0.121049 -0.715766 -0.378485 0.520718 -0.493072 -0.306863 0.011580 1.175788 -0.506786 -0.091905 -0.499223 0.005506 -0.644544 -0.041577 0.955020 -0.457100 0.396273 0.048635 -0.432520 0.243707 -0.236851 -0.215784 0.238100 -0.592699 -0.393211 0.124647 0.014268 0.241507 0.526736 -0.118234 0.208737 0.775247 -0.105422 0.470251 0.314665 -0.020232 0.689930 0.046929 -0.281428 -0.178803 -0.255616 -0.399587 -0.406436 -0.102450 0.347231 0.167048 0.348192 -0.109961 0.420859 0.425154 0.594205 -0.378084 0.585053 -0.039615 -0.497797 -0.052772 0.096001 0.259528 -0.162509 0.397319 0.594302 -0.302342 -0.324657 0.461286 -0.222108 -0.245299 -0.383171 -0.132474 -0.172990 -0.629400 -0.428969 0.252028 0.296060 0.223745 -0.630193 -0.355599 0.138356 -0.187870 0.343855 -0.193563 -0.055034 0.171949 -0.301723 -0.172065 -0.520164 0.493282 -0.340065 -0.001769 -0.210654 0.401993 0.237319 -0.234029 0.176753 0.792990 -0.303064 -0.642925 0.392672 -0.596215 -0.038071 -0.409247 0.021576 -0.343015 -0.436041 -0.123031 -0.480409 0.277664 0.023933 -0.582977 0.551870 0.523979 0.000918 -0.473813 -0.184560 0.689427 0.131405 -0.306432 0.307219 0.055130 -0.089305 0.668797 -0.145114 0.064228 -0.571384 -0.744297 0.045158 0.510639 0.653086 -0.068418 -0.289762 0.125326 0.140967 -0.017788 -0.107429 -0.429107 0.010481 -0.010396 -0.249482 0.205559 -0.537814 0.282767 -0.309300 -0.423241 0.676141 -0.641624 0.028583 -0.803706 -0.256408 -0.191386 -0.330858 0.684261 -0.134418 0.132330 -0.051669 0.294303 0.322184 -0.122745 0.073914 -0.030733 0.034843 -0.335277 -0.148775 -0.269467 -0.023220 -0.603810 0.206750 0.101077 -0.600403 0.109385 -0.454083 -0.214453 -0.392570 -0.469425 -0.054725 -0.127129 -0.028494 -0.124621 -0.090120 0.219541 0.084679 0.558061 0.240833 0.765589 0.123683 -0.185722 -0.116921 -0.395576 -0.075127 -0.601644 0.490902 0.077852 0.766278 0.191515 -0.353872 0.324131 -0.047752 0.001603 -0.518658 0.823063 -0.211918 0.229387 0.517073 0.457281 0.025462 0.284384 -0.291368 -0.300529 -0.874807 -0.531301 0.077831 0.033609 -0.047845 0.189981 0.050498 -0.001973 -0.555571 -0.027857 0.123831 -0.409614 0.904919 0.105376 0.143217 -0.091317
对 -0.757148 -0.015246 0.238874 -0.213411 -0.376039 0.019280 0.753981 0.277769 -0.154146 0.305208 -0.223956 0.162585 -0.421695 0.695463 -0.648362 -0.223429 0.587118 -0.086872 -0.293120 -0.260084 0.518885 0.129567 -0.334052 0.339031 0.273268 0.070622 0.310785 0.516062 -0.416638 0.111629 0.183806 -0.190461 -0.765302 -0.459061 0.475320 0.011970 -0.632021 0.041388 -0.280431 -0.020165 0.696266 0.782281 -0.505245 -0.409444 0.220132 0.578169 -0.324519 0.460289 0.358468 0.037414 0.421307 -0.278265 -0.016629 0.384152 0.098564 0.377575 0.337290 0.222459 -0.264507 -0.148765 0.251157 0.222062 -0.397918 0.312609 0.007738 0.354099 0.108146 0.054330 -0.548253 0.012325 0.436896 0.372659 -0.512302 -0.270123 0.351181 0.081559 -0.073564 0.200014 0.137146 -0.275759 0.018328 -0.100765 0.550442 -0.211964 0.107668 0.326573 0.694568 -0.617486 -0.218944 -0.022676 -0.178878 -0.100540 -0.122305 0.665565 0.199796 0.207441 0.037086 -0.506030 0.076925 -0.365718 -0.397802 0.494326 -0.659180 -0.752248 0.306331 -0.354988 -0.281462 -0.008535 -0.204917 0.184175 -0.052093 0.583595 0.386042 -0.015361 0.148574 -0.059016 -0.804520 -0.347104 -0.262175 0.536368 -0.448880 0.168103 -0.485173 0.165301 -0.115404 0.402612 -0.469147 -0.683648 -0.254296 -0.066985 -0.082273 -0.130541 0.077271 -0.463187 -0.021396 -0.494116 -0.280282 -0.247038 0.129564 -0.507959 -0.105794 -0.131601 -0.083323 0.045591 0.352046 -0.456551 0.035757 0.611557 0.014896 0.090054 0.279336 0.050262 -0.503395 -0.362408 -0.126698 0.145505 -0.257395 0.785834 0.002270 -0.149845 0.055049 -0.253056 -0.032292 0.495618 0.389150 -0.087346 0.014231 0.202645 -1.221604 0.202784 0.065099 0.139589 -0.340547 -0.058276 -0.507948 0.348047 0.217797 0.772455 -0.085982 0.131146 -0.185694 0.295477 0.302120 0.247946 0.252089 0.204284 -0.057133 0.019528 -0.056490 -0.419158 -0.363319 -1.058863 0.591980 -0.622444 0.369654 0.201979 0.086175 -0.441980 -0.157304 -0.222581 -0.590507 0.442568 0.434422 0.180954 0.107275 -0.766284 -0.246127 -0.221606 0.096141 -0.182403 0.060033 -0.521964 0.219630 0.908464 -0.401769 0.014345 -0.536168 -0.394582 0.384338 -0.248795 0.400969 -0.256470 0.624861 0.313977 0.308075 -0.566567 0.041660 0.376330 0.533765 -0.346593 -0.036938 0.189423 -0.524368 -0.168780 -0.028114 0.574995 0.396737 -0.588402 -0.180857 -0.745246 -0.173921 -0.449259 -0.833449 0.296074 0.067648 0.224000 0.425211 -0.139987 -0.160712 0.012460 -0.162547 -0.640371 -0.067248 -0.701355 0.155771 0.216457
身 0.046170 -0.259551 0.643603 0.126532 -0.295953 0.085012 0.184986 0.569274 -0.076814 0.005966 0.182263 0.407996 0.173494 0.236203 0.228064 -0.201270 -0.197894 0.006626 -0.713625 -0.315077 0.012666 -0.030725 0.465538 -0.095508 -0.534638 0.087271 -0.135258 -0.160940 0.120811 0.785598 0.434677 -0.015767 -0.228987 0.006494 0.009429 -0.943437 -0.770606 -0.164622 -0.544434 0.265367 0.391694 0.023115 -0.820103 0.333136 -0.663030 0.188913 -0.411345 0.560692 -0.037526 -0.102718 0.336891 -0.216073 0.339162 -0.096178 0.153294 -0.973138 0.243061 0.083325 0.151658 0.381012 0.035678 -0.092467 0.272173 -0.479087 0.179052 0.290391 -0.113593 0.385063 -0.340466 -0.010136 0.808394 1.007083 -0.468057 -0.099701 -0.303844 -0.384167 0.208714 0.467511 0.182558 -0.074589 -0.010604 0.102868 0.273635 -0.339857 0.367731 -0.112934 0.046391 -0.787068 -0.228852 -0.405799 -0.410383 -0.246275 0.293674 0.103900 0.110057 -0.062789 -0.092006 -0.149407 -0.595143 -0.153981 -0.608884 0.013657 -0.362802 -0.307803 0.655749 0.143440 -0.590011 0.582080 -0.520223 -0.948211 0.176442 -0.056762 -0.466378 -0.419973 0.150962 0.035064 -0.419450 -0.321944 0.231055 0.157414 0.016795 -0.383698 0.522558 0.038947 0.218340 -0.222293 -0.549904 0.186570 -0.212875 0.030048 0.379165 0.148404 -0.036385 -0.178816 -0.376865 0.054703 -0.427206 -0.122311 0.283489 0.139617 0.556278 0.013182 0.466063 0.204819 0.564195 -0.278767 0.180266 0.154413 -0.151348 -0.220615 0.194961 -0.121231 -0.127729 0.322847 0.170772 0.143933 -0.221262 -0.462267 -0.756198 -0.178282 -0.216137 -0.163064 -0.640896 -0.229931 -0.292775 0.054626 -0.133232 -0.142855 -0.553973 0.239561 -0.750800 0.254306 0.222408 0.599108 0.192760 -0.119092 -0.203775 -0.136348 0.107193 0.114890 -0.253131 -0.049848 0.602802 0.387899 -0.201709 0.540560 -0.211072 0.371372 -0.270216 -0.190430 0.263035 -0.468407 0.352456 0.227333 -0.015016 0.049385 0.076658 -0.133622 0.092475 0.127963 -0.407802 -0.029083 0.100152 0.265474 -0.567173 -0.307116 -0.762749 -0.819655 0.501138 0.228191 -0.252957 -0.006175 0.340240 -0.049331 0.341275 0.250586 -0.313119 -0.127456 -0.209162 -0.434654 0.046112 0.023129 -0.083773 0.575028 0.079881 -0.385151 -0.481350 0.076652 -0.068680 -0.426963 -0.170360 0.782823 -0.881359 0.774247 -0.492067 -0.007134 -0.107205 -0.462433 0.173837 -0.237404 -0.283967 -0.093353 -0.447933 0.126897 0.317139 -0.156010 0.641427 0.316351 -0.056625 0.038562 0.436822 0.057108 0.203094 0.131177 0.267016 0.004065
动 0.292897 -0.491695 0.056326 -0.040095 0.356577 0.414914 -0.866388 0.251136 -0.160874 0.225284 -0.422068 -0.113915 -0.197206 0.130956 -0.344015 0.259081 0.262727 -0.257905 -0.910999 -0.160890 0.447512 -0.302708 -0.130232 -0.404979 -0.410206 0.209625 -0.175885 0.108786 -0.077235 0.525385 -0.124962 -0.499174 -0.094777 -0.008932 -0.020106 -0.143921 -0.442216 -0.386356 0.117668 0.046884 0.518975 0.390347 -0.004883 -0.279247 -0.533776 -0.273282 -0.407109 -0.424274 0.628056 -0.412642 0.617322 0.282825 0.137622 -0.281989 -0.341031 -0.497173 0.225782 0.182804 0.283615 -0.423539 0.291134 -0.005889 -0.041947 -0.251626 0.019065 0.098435 -0.263844 -0.182320 0.354495 0.071264 0.079516 -0.051618 -0.276676 -0.340542 0.288925 -0.165287 -0.312646 0.254593 0.012675 -0.556167 0.240632 0.647008 -0.350246 -0.412181 -0.298448 1.011595 -0.069553 -0.538298 0.801457 -0.823528 -0.497587 -0.177308 0.101676 -0.230873 -0.053406 0.534961 -0.233919 0.081785 -0.587824 0.222993 -0.695837 -0.326522 0.134270 -0.358501 0.503912 0.572672 0.083759 0.003730 -0.684561 -0.169720 -0.166192 -0.161546 -0.045193 0.081595 -0.031855 -0.290558 -0.344153 -0.338138 -0.015635 0.292236 0.035940 0.587804 -0.071019 0.375383 -0.455443 -0.479058 -0.022844 -0.467367 -0.063518 -0.398863 -0.160691 -0.233746 -0.084651 -0.144433 -0.103362 0.200018 0.166594 -0.601974 0.222494 0.031650 0.307201 0.238987 0.570544 -0.138306 0.668180 -0.430794 -0.593623 -0.180191 0.339264 -0.330278 0.307187 -0.384519 0.480765 -0.496863 0.050568 -0.209136 0.113365 -0.293463 0.132892 -0.331693 0.734494 -0.257327 -0.269446 -0.118556 0.188517 0.104043 -0.078345 -0.080054 -0.174959 0.374558 0.085547 -0.310478 -0.128395 -0.166131 -0.118444 0.095801 0.122512 -0.032376 0.050863 -0.165228 -0.245124 -0.454093 -0.215931 0.010889 -0.309674 0.175099 0.268987 0.090279 -0.124543 -0.303236 -0.616998 -0.691037 0.048777 0.516096 -0.127362 0.590640 -0.852956 -0.473445 0.040480 -0.459705 -0.513683 -0.513011 -0.343209 -0.085311 -0.027634 0.224927 -0.514820 0.520544 0.514286 -0.260742 -0.046047 -0.235522 0.654240 -0.255071 -0.797355 -0.220036 -0.368219 0.487320 -0.031823 0.021220 0.013462 -0.517039 0.540742 0.352439 0.237325 -0.230833 -0.310790 -0.157318 -0.106419 0.339248 -0.221587 -0.095154 -0.503898 0.052395 0.343270 0.520673 -0.617008 0.155866 0.479201 0.086876 0.188539 -0.001854 0.065338 0.150886 -0.003715 -0.029699 0.116278 -0.213423 -0.066672 0.215241 -0.290124 0.008102 0.438103 0.116993 0.139405 -0.430713
么 -0.941681 -0.635381 -0.333734 -0.241690 -0.075069 0.256034 0.076000 0.396698 -0.316085 0.337592 0.054138 0.262024 0.122847 0.271631 -0.211108 -0.444072 -0.031678 -0.426546 0.188923 0.180547 0.597581 -0.531448 0.582426 0.527570 0.209285 -0.311837 0.057339 0.039250 -0.867627 0.494008 -0.185710 -0.576121 -0.894396 -0.070142 -0.238732 0.230269 0.191623 -0.448294 -0.197416 0.446292 -0.448012 -0.000039 0.005500 -0.399229 -0.120925 -0.122914 -0.366983 -0.473576 0.441154 0.111627 0.060353 -0.295000 -0.397768 0.140747 -0.199143 -0.394078 0.451530 0.432130 0.124025 0.172037 0.339955 0.394321 -0.148035 0.203889 -0.023728 0.123710 0.263514 0.022305 -0.001851 -0.368723 0.397052 -0.810234 -0.182755 -0.302492 0.365646 0.352513 0.008216 -0.496791 0.265376 -0.086523 -0.191387 0.625915 0.051594 0.039626 1.173677 0.143561 0.460901 -0.159187 -0.024547 0.377641 -0.601164 0.712860 0.021113 0.404712 0.596542 -0.191579 0.339267 0.027417 -0.528484 0.064141 -0.998137 0.269621 0.032303 -0.325496 0.539303 -0.491656 0.322141 -0.012046 0.158256 -0.498550 -0.178075 0.390212 -0.463630 0.040171 -0.405494 0.161386 -0.532323 -0.317996 -0.247669 0.429820 -0.300076 -0.014423 0.089044 0.255938 -0.889892 -0.537431 -0.198462 0.093005 0.330287 0.374789 -0.283436 -0.165136 -0.134753 -0.538288 -0.270749 -0.088677 -0.017141 -0.420445 -0.272648 -0.390902 0.190784 -0.456009 0.554165 -0.373816 -0.170198 -0.433887 0.327909 -0.242157 -0.001175 0.526729 0.015687 -0.218711 0.063680 0.349173 -0.439291 0.171345 0.299918 0.168139 0.388896 -0.220393 -0.154142 -0.082846 -0.097430 0.257531 0.746478 -0.195016 0.177077 0.091028 0.116007 -0.089350 0.415771 -0.196967 -0.509280 -0.055301 -0.352945 0.157786 0.506202 0.051752 0.141455 0.248420 -0.490320 -0.222518 0.231769 0.458160 -0.441567 0.458549 -0.382445 -0.278132 -0.704068 0.482426 -0.539594 -0.214359 0.536981 -0.057471 -0.179310 -0.221403 0.037727 -0.152179 0.185695 0.128289 -0.059700 -0.158807 0.319855 -0.558797 -0.058759 0.065846 0.120093 0.367234 -0.148374 -0.734752 -0.689264 0.026777 0.205994 -0.262686 -0.008691 0.362037 -0.598677 -0.081451 0.026052 -0.388140 0.036281 -0.023256 0.163039 0.594512 0.671217 0.085188 -0.241248 -0.139227 -0.101592 -0.145008 0.468185 0.435906 0.209142 0.075317 -0.069251 0.699730 0.233238 0.241997 0.173703 -0.323571 -0.156704 -0.096838 -0.423243 -0.158243 0.240855 -0.157995 -0.041638 0.351853 -0.268960 -0.278314 -0.132786 0.103282 0.710810 -0.292785 0.031812 -0.259540
要 0.576421 -0.088011 0.060714 -0.123608 0.488597 0.177311 0.041632 -0.337981 0.140657 -0.112201 0.034942 0.187491 0.791419 0.046284 -0.061075 0.023508 0.323324 -0.270820 -0.479832 0.044830 -0.390933 0.071442 0.939156 0.221913 0.065517 -0.560340 -0.134664 0.131573 -0.620731 0.197095 0.688404 -0.249487 -0.115897 0.088963 -0.111757 0.001778 0.019703 -0.321324 -0.247233 0.319835 0.518907 0.738271 -0.537223 0.350174 -0.304343 -0.358943 0.086721 0.279162 0.716884 -0.305999 0.375282 -0.124345 -0.560897 -0.000566 0.299249 -0.438612 0.216299 0.501811 -0.290619 -0.111708 0.220938 -0.213013 -0.164115 -0.386724 0.343806 0.921050 -0.527938 -0.137826 -0.186025 -0.226576 0.364474 -0.432452 -0.426843 -0.002697 0.193646 -0.350741 -0.054176 -0.572443 0.459121 -0.383329 0.081692 0.047585 -0.166086 -0.327875 0.034757 0.496836 -0.016606 -0.207113 -0.123797 -0.158514 -0.204285 0.272870 0.068299 -0.168812 0.434950 -0.203117 -0.572722 0.487735 -0.897966 0.023412 -0.650181 0.890509 -0.143434 -0.615149 0.378887 0.076458 0.401616 -0.077007 -0.077844 -0.188731 0.182557 0.815598 -0.057414 -0.391137 0.357858 0.090245 -0.433369 -0.285009 -0.303389 0.082168 -0.485841 0.028739 -0.328338 0.282923 0.259264 0.471336 -0.881826 -0.157271 -0.109489 -0.315541 -0.356539 -0.092589 -0.021586 0.009351 0.308454 0.132709 -0.014893 -0.370006 -0.798011 0.223843 0.330559 -0.930340 0.098991 -0.573612 0.677486 0.135788 0.533292 -0.198120 -0.162758 -0.410317 0.250025 -0.297088 -0.122088 -0.082595 0.158751 0.160864 0.022426 0.136294 -0.206556 -0.258130 0.500970 -0.102554 -0.543083 0.349030 -0.265377 -0.422161 0.002312 -0.015102 0.185273 -0.036533 0.353483 0.012756 -0.462295 0.258758 -0.089141 0.281423 -0.083245 -0.008975 -0.221514 0.571008 -0.540568 -0.097273 0.046231 -0.060801 0.664823 0.255879 0.088603 0.507173 -0.067225 0.211976 -0.270327 -0.888769 -0.298232 0.125994 0.648864 0.504890 -0.115375 -0.182215 0.166239 0.376035 -0.356746 0.000888 0.346094 -0.406359 0.738702 0.246261 0.368177 -0.118891 -0.539757 -0.062867 0.025490 -0.352611 -0.101941 0.127247 -0.101666 -0.354211 -0.278054 -0.613588 -0.092613 0.337782 0.474226 0.158439 0.603717 0.181271 0.372427 0.277799 -0.134609 0.056411 0.044833 -0.444132 -0.978039 -0.170427 0.449959 0.290082 0.051351 0.298010 0.445429 0.214197 -0.617597 -0.141527 0.004691 -0.199195 -0.163646 0.369945 0.410492 -0.401809 0.106477 -0.620866 -0.584970 -0.584826 -0.000153 -0.585021 0.006823 0.258352 -0.454534 0.038927
你 0.246012 -0.389844 -0.069437 -0.056701 -0.553909 0.110764 0.345485 0.028942 0.457149 -0.089603 0.416303 -0.104545 0.239579 -0.474720 0.003540 0.521350 0.066470 -0.338353 -0.508506 -0.157131 0.123832 -0.297399 0.496508 -0.030873 0.400727 0.199801 0.445357 -0.624533 -0.576477 0.308626 0.473038 -0.034016 -0.251356 0.335441 0.166363 -0.567671 -0.392028 -0.187985 -0.491867 -0.120417 -0.111885 0.221355 -0.375142 -0.358412 0.174455 -0.191460 0.130465 0.238078 0.496912 0.179724 0.645778 0.153268 0.055218 -0.161781 0.063353 -0.288355 -0.417421 -0.101973 0.337932 0.558442 0.545981 -0.179676 0.457777 0.299270 0.379082 0.572393 0.688083 0.125389 -0.064366 0.048578 0.041530 -0.114481 -0.733764 -0.185696 -0.392899 -0.047898 -0.056175 -0.471646 0.183894 0.565855 -0.805765 -0.109270 -0.090108 0.149725 -0.032537 0.443091 0.035667 -0.625675 0.342971 -0.386277 -0.189208 0.474162 0.196688 0.039623 -0.147652 -0.754718 0.022247 0.141244 -0.216941 0.392418 -0.942884 -0.207963 -0.367770 -0.824712 -0.249348 -0.015816 0.483587 -0.157684 -0.455616 -0.180855 -0.159531 0.345586 -0.681308 -0.446633 0.438135 -0.156607 -0.264777 -0.122258 -0.228484 0.237169 -0.164222 -0.123318 0.138414 0.013804 0.052052 0.239465 -0.066688 0.087239 0.102317 0.149416 0.330594 -0.421015 -0.059055 0.369726 -0.156234 0.238370 0.199055 0.029482 -0.408534 -0.330328 0.268598 -1.068900 0.113225 -0.229848 0.193340 -0.062631 0.077614 0.800408 -0.173429 0.693119 0.398033 -0.013989 0.104666 0.221554 -0.022354 0.206327 -0.533632 0.198643 -0.232542 -0.266714 0.078015 0.237977 0.381253 0.092951 0.013563 -0.165093 0.041488 0.157462 -0.225967 0.682543 -1.115929 -0.222337 -0.148559 -0.061316 -0.864371 -0.439191 0.659215 -0.154231 -0.010665 -0.100375 -0.033800 0.204437 0.496564 -0.028579 -0.278977 0.329718 0.567226 -0.412843 0.070621 0.193835 -0.017489 -0.447434 0.640860 0.134240 0.123738 0.297578 -0.436063 -0.241300 0.374029 0.451673 -0.584486 -0.208456 -0.682288 -0.081702 -0.471843 -0.291002 0.202805 0.170227 0.310351 -0.179005 -0.568774 0.228629 -0.178714 0.258241 -0.411620 0.405255 -0.122737 0.041681 0.249363 -0.237698 -0.658510 0.079922 0.152026 0.116035 -0.016907 0.044594 0.172400 -0.829560 -0.029110 0.011257 -0.151664 -0.240663 -0.641957 0.776595 0.283067 0.348116 -0.102222 0.099063 -0.362525 -0.397870 -0.314596 -0.077312 -0.420771 0.251052 0.199907 0.550476 0.830049 0.105489 -0.393469 -0.152193 0.048603 -0.085420 0.459557 -0.351935 -0.263303 -0.107592
没 -0.278905 -0.392566 0.402857 -0.340726 -0.427281 0.282311 0.187239 0.313920 -0.174161 -0.290602 0.050918 0.475643 -0.330509 -0.263165 0.150782 -0.063184 0.239375 -0.149743 -0.397909 0.070459 0.183442 0.188697 0.018015 -0.104803 -0.472959 0.180469 -0.367793 -0.135125 -0.762646 -0.099062 0.505204 -0.750051 -0.243445 -0.167596 0.210885 -0.275640 -0.232063 -0.560799 -0.463785 0.031970 0.105493 0.481013 -0.021534 -0.694514 -0.237992 -0.531319 0.308320 -0.140368 0.676016 0.282877 0.175222 0.397449 -0.207163 0.106837 0.191669 -0.472640 0.386198 -0.216762 -0.023795 0.348803 0.486027 -0.031851 0.140717 0.131565 -0.132928 0.439137 0.356067 -0.120849 -0.337318 -0.233043 0.378014 0.099577 -0.393833 0.232403 0.154157 0.062093 -0.263169 -0.428668 0.056880 0.242912 -0.454848 0.204072 0.098561 0.434601 0.384985 0.066511 0.203756 -0.164456 -0.191319 -0.339305 -0.349180 0.117675 -0.214582 0.313309 0.522425 -0.151040 -0.066737 -0.455130 -0.139870 0.279215 -1.152921 -0.141686 0.179265 -0.467081 0.376071 0.023057 0.070448 0.038165 -0.006350 -0.637056 0.024097 -0.303341 -1.163490 -0.469067 0.397141 -0.184953 -0.337871 -0.443811 -0.174080 0.304807 -0.058617 -0.194876 0.035275 -0.224907 -0.669537 0.209500 -0.478923 0.577112 -0.256062 0.035034 -0.027306 0.093752 -0.058899 0.098905 -0.033011 -0.632528 0.350918 -0.483500 -0.265256 0.071289 0.513771 -0.363561 0.548594 -0.185694 0.007979 -0.302527 -0.069775 0.358028 0.184865 0.055560 0.522025 -0.225534 -0.083154 0.169205 0.232172 0.013994 -0.203260 -0.038301 -0.046121 -0.370027 0.218925 0.151553 -0.463018 0.387194 0.310565 -0.567140 0.144146 0.264284 -0.655568 0.198497 -0.238131 0.499700 0.094399 0.348941 -0.358982 -0.054972 0.351505 -0.025631 0.000939 -0.454252 -0.147074 -0.242297 -0.121155 0.466815 0.480264 -0.211408 0.289125 0.203974 -0.329158 0.588397 -0.373346 -0.136430 0.182491 -0.555527 -0.024385 0.081488 -0.362904 0.003553 0.054419 0.355524 -0.265783 -0.033068 -0.059489 -0.191364 -0.014037 0.307626 0.435998 0.068737 -0.186266 -0.171149 -0.550726 -0.173600 -0.482452 0.134498 -0.060823 0.531827 -0.623473 0.031575 0.282603 -0.068120 -0.188914 -0.224460 0.337844 0.495605 0.341094 -0.193740 -0.157743 -0.242619 0.102972 -0.341675 -0.056575 -0.210733 0.099830 0.325415 -0.006476 -0.045700 0.240172 -0.209848 -0.178225 -0.198594 -0.441153 -0.029536 -0.082510 0.151793 0.378174 -0.529455 0.303294 0.233938 -0.559978 -0.064561 -0.324947 0.014465 0.625506 0.205779 0.013380 -0.289557
觉 0.067916 -0.708503 0.162803 -0.155433 -0.244345 -0.378150 -0.115207 0.332936 -0.459577 0.184648 -0.131517 0.292154 0.157241 -0.453523 -0.299990 0.393400 -0.212443 -0.213596 -0.422689 -0.313130 0.328122 -0.358490 0.020492 0.238695 -0.174669 -0.345513 0.834250 -0.398963 -0.199981 0.434546 0.515700 -0.050622 -0.908933 0.127838 0.052579 -0.540366 -0.348388 0.256668 -0.312099 -0.188733 -0.023648 0.933485 -0.714172 0.048685 -0.591358 0.076417 -0.300476 -0.226252 0.501902 -0.219231 0.552128 0.006612 -0.199677 -0.084491 -0.253590 -0.112759 0.401122 -0.425939 -0.443391 0.157362 0.498502 0.163129 0.408363 0.185421 0.026782 0.419878 0.364748 0.468174 -0.097238 0.021502 0.240084 0.134140 -0.292237 0.122024 -0.368737 -0.255316 -0.338612 -0.173496 -0.078288 0.021832 0.171951 -0.266666 0.468262 0.179466 0.574839 -0.224104 0.564534 -0.244446 -0.379825 0.030988 0.008733 0.743982 -0.142814 0.010878 0.434857 -0.409875 -0.393279 0.581283 -0.093025 -0.088484 -0.633029 -0.036250 0.079776 -0.690453 -0.169247 0.109060 0.293951 0.137180 -0.504572 -0.198356 -0.204157 0.001950 0.098677 -0.082180 0.126684 0.295957 -0.242036 -0.031674 -0.670326 0.529794 -0.363374 -0.182632 -0.464151 0.298017 0.592077 -0.301203 -0.136316 0.670797 -0.490997 -0.334526 0.240371 -0.723103 0.039828 -0.043361 -0.016195 -0.196607 -0.340168 -0.248255 -0.635532 -0.135474 -0.369808 -0.412661 0.531121 0.214916 0.556381 -0.417860 -0.371693 0.343807 0.079554 -0.132894 0.390610 0.184541 0.080447 0.445074 -0.137452 -0.011476 -0.154799 -0.745620 0.094469 0.493947 0.555828 0.014345 -0.272325 0.089363 0.107313 -0.393607 0.069656 -0.384705 0.043336 0.068656 -0.589301 0.352462 -0.421818 0.316120 -0.201325 -0.401488 0.496259 -0.635558 0.068213 -0.704994 -0.127075 -0.107141 -0.106609 0.839449 0.205110 0.176712 -0.125500 0.419489 0.136419 -0.338773 -0.072353 -0.237597 0.037526 -0.215784 0.047378 -0.204395 0.245472 -0.599382 0.275171 0.039998 -0.471600 -0.010903 -0.328743 -0.139628 -0.213896 -0.302129 0.084633 -0.050801 0.400617 -0.010492 -0.094170 -0.038642 0.428118 0.242169 0.003549 0.332282 0.167363 0.015454 -0.205371 -0.031848 0.370633 -0.698267 0.307832 0.257684 0.246875 -0.322488 -0.307484 0.331900 0.173984 0.132754 -0.525784 0.683358 -0.344725 0.064077 0.296575 0.237008 -0.436398 0.189704 0.009141 -0.487430 -0.581745 -0.680672 -0.067457 0.191481 -0.218491 0.287957 0.322709 -0.053048 -0.346126 0.053854 0.034171 -0.598399 0.775640 -0.084483 0.010295 -0.353174
人 0.219840 -0.303623 0.387661 -0.012426 -0.123412 -0.032362 -0.064326 0.123093 0.142615 -0.091426 -0.005351 -0.355678 0.259364 -0.277251 -0.063907 0.627233 0.048322 0.466872 -1.066465 -0.082764 -0.124559 0.026499 0.368440 0.543252 -0.248492 -0.066925 0.065056 0.089793 -0.201644 0.336132 1.012259 -0.250342 -0.060013 -0.375937 -0.133556 -0.655386 -0.149770 -0.183455 0.071437 -0.210561 0.189769 0.501489 0.384812 -0.193767 0.036437 0.061356 -0.591765 0.150700 0.013575 -0.657759 0.151119 0.663366 -0.228050 0.207212 -0.102958 -0.387227 0.085093 -0.208063 -0.188452 -0.121525 0.135427 0.380832 0.375946 0.303699 -0.339145 0.261154 -0.439571 0.085898 0.279481 0.781868 -0.323068 0.138918 -0.223561 0.201307 -0.498516 -0.199685 -0.074638 -0.689955 0.849638 -0.125632 0.145559 -0.152546 1.005028 -0.101672 0.290802 0.286953 -0.103776 0.091530 -0.276417 -0.201099 0.253637 -0.396631 -0.044973 0.161943 0.236036 -0.230934 0.087569 0.000189 0.095385 0.856612 -0.499442 0.227917 -0.539612 0.066882 0.686017 -0.022966 -0.041877 -0.372279 -0.828640 -0.507610 0.467872 -0.240963 0.136186 -0.709229 0.212515 -0.001907 0.172456 0.208038 -0.366736 0.148861 0.121986 -0.137945 -0.016233 -0.257402 -0.292904 0.099406 0.255270 0.041370 -0.316553 -0.223122 -0.246909 -0.447724 -0.181996 0.397965 -0.068817 0.365094 -0.499858 0.407071 -0.013119 -0.794657 0.089804 -0.432284 0.165032 -0.187130 -0.305800 -0.392536 0.059208 -0.219226 -0.198832 0.667899 -0.380623 0.120512 -0.458053 0.052335 0.130775 -0.507835 -0.688504 -0.380315 0.326108 -0.244082 0.322121 -0.032884 -0.311422 0.367889 -0.504970 0.429124 0.582807 0.121000 -0.220422 0.553701 -0.527667 -0.656975 -0.121632 -0.670589 0.036711 -0.558474 0.661284 0.137445 -0.432361 0.323494 -0.021667 -0.035880 0.144311 0.429056 0.043923 -0.162177 0.744812 0.350080 0.229387 -0.529561 0.701665 -0.702910 0.438073 0.414070 1.024635 0.061938 -0.383651 -0.349811 -0.287860 0.573153 0.250318 0.221396 -0.177914 0.454673 0.143419 -0.057854 -0.115884 0.065158 0.057920 -0.760649 0.443893 -0.098057 0.453371 -0.579096 0.023414 0.002184 0.578314 0.095084 -0.282277 0.265033 0.229121 -1.195815 -0.046267 0.653997 0.775865 -0.178520 -0.683615 -0.219750 -0.258164 -0.272380 -0.652512 -0.396947 0.399941 -0.097232 0.540348 0.492787 0.749721 -0.213065 0.243462 -0.018538 -0.210465 -0.296352 -0.219655 0.026749 0.361454 -0.130198 0.459035 0.373300 -0.002486 0.201621 -0.407693 -0.008107 0.390508 -0.048787 0.150402 -0.119809
作 0.179858 -0.095217 0.981510 0.516306 -0.141849 0.443545 -0.434841 0.014791 -0.455791 -0.049897 0.264237 0.025470 0.485600 -0.283829 0.231166 0.006056 0.479278 -0.203589 0.601621 0.341092 0.556370 -0.223345 0.209186 0.121822 0.099699 0.124999 -0.167988 0.314227 -0.151504 0.203981 0.214532 -0.178083 -0.082791 0.320301 0.096035 0.021330 0.225247 0.202513 0.229995 -0.109080 0.285026 0.083400 -0.576963 -0.617498 -0.127120 -0.955729 -0.039445 0.381079 -0.023863 -1.045009 0.031881 -0.018419 -0.419157 0.129040 0.017174 0.158240 -0.074525 -0.123735 -0.274704 0.908802 0.225199 0.273614 0.064325 0.141512 0.426278 -0.287030 0.132128 0.054825 -0.611867 -0.341676 -0.262794 -0.181861 -0.682287 0.027289 -0.401672 -0.355356 0.348462 0.082208 0.481170 -0.058479 -0.325575 0.244550 -0.421497 0.285480 0.137116 0.266942 0.604640 0.051183 -1.003229 0.382474 0.082716 0.805891 -0.249226 0.736399 -0.135519 -0.038229 0.332560 -0.185324 0.003801 -0.061485 -1.020875 0.733330 0.080260 -0.099611 -0.021638 -0.229877 0.024099 0.012162 0.242815 0.026248 -0.348628 0.508483 0.343882 0.307731 -0.097220 0.152736 -0.355520 -0.346746 -0.681829 0.412766 -0.155409 0.145515 0.196155 0.067223 -0.507683 0.282498 0.169458 -0.475201 0.134147 -0.306823 0.898925 -0.579910 -0.017826 -0.298002 -0.036463 -0.008093 -0.085377 -0.734946 -0.213857 0.083440 -0.208160 -0.307547 0.036120 0.081797 0.654664 -0.333502 -0.042199 -0.219579 -0.646814 0.075231 -0.197402 0.088109 -0.033687 -0.110511 -0.271904 -0.172773 -0.318966 -0.061277 -0.231987 -0.309647 0.423530 -0.373268 -0.235073 0.902355 0.132387 0.178262 0.131853 -0.081611 -0.311493 0.109141 0.217337 -0.179318 -0.237472 0.063973 0.077622 -0.067367 -0.198703 0.358950 0.299549 0.025827 -0.003831 -0.200980 0.025129 0.196234 -0.132516 -0.403372 0.127058 -0.128445 -0.201233 -0.016513 -0.142372 -0.678222 -0.031770 -0.602424 0.622495 0.682807 -0.134882 -0.427497 0.299726 -0.497498 -0.454231 0.010743 -0.236388 -0.176305 0.119998 0.141454 -0.097078 -0.095641 0.192377 -0.107442 -0.326511 -0.114920 -0.619762 -0.102231 0.585532 -0.105401 -0.176014 0.576857 -0.150005 -0.047418 -0.157113 0.329631 0.350527 -0.394217 1.160252 0.291054 -0.182455 0.180151 0.484262 -0.155060 -0.339625 0.851498 -0.010742 0.279879 -0.194486 0.164150 0.317619 -0.035877 0.470753 -0.015071 0.347423 -0.216755 -0.477824 -0.275346 0.196797 0.128503 -0.123248 0.588578 -0.788212 0.287334 -0.086174 -0.518889 0.007017 -0.114626 -0.038445 -0.811232
体 0.305568 -0.230039 0.163103 -0.230976 -0.283349 0.112376 0.131071 0.171769 0.030130 -0.199330 -0.358328 0.668618 0.996862 -0.637149 -0.607591 0.093217 -0.721418 -0.016842 -0.960829 -0.485827 0.051315 0.059683 0.309976 0.327758 -0.530754 -0.013783 0.232216 0.353964 -0.738672 0.727200 -0.327472 0.013811 -0.163002 -0.102238 0.222438 -0.044334 -0.242359 -0.259703 -0.754537 0.141374 0.330541 0.508865 -0.405226 0.142182 -0.171664 0.436245 -0.150326 -0.081004 0.544955 0.115956 0.073835 -0.242799 0.609757 0.479366 0.031307 -0.233447 0.359740 0.246839 0.371385 -0.205729 0.001951 -0.243263 0.130775 0.159776 0.189061 0.477343 -0.493642 0.310068 0.629920 0.524642 1.046530 0.048328 -0.843620 -0.125620 0.315123 -0.980769 -0.245439 0.296302 0.513244 -0.134595 -0.082699 0.382117 0.568357 -0.061748 0.286996 -0.375328 0.260913 -1.045148 -0.188788 -0.029592 -0.525883 -0.437315 0.309329 0.026555 0.989554 -0.036093 -0.177172 0.412763 -0.860443 -0.003250 -0.163084 -0.261697 -0.534145 -0.412812 0.174073 -0.305821 0.017275 -0.114135 -0.562011 -0.522780 0.167164 0.413864 -0.602732 -0.513323 -0.229265 -0.020197 -0.254900 -0.221551 0.087006 -0.143612 0.118241 0.039929 0.403303 0.096835 -0.084584 -0.257936 0.203135 -0.272271 -0.418795 -0.159264 -0.235533 -0.017148 -0.091449 0.071933 -0.115089 -0.527642 -0.580959 0.187406 -0.002963 -0.292944 0.103152 0.298528 0.652309 -0.231889 0.602850 -0.681864 -0.070418 0.117945 -0.024290 0.107885 0.610178 -0.679644 -0.449723 -0.411246 0.124586 0.026353 0.146546 -0.142710 -0.334881 0.214580 0.073998 -0.601728 -0.309341 -0.699304 0.588469 -0.453846 0.616088 -0.192168 -0.136158 0.256259 -0.466354 -0.103935 0.107888 0.141881 -0.220851 0.023650 0.297838 -0.217017 0.124245 -0.145739 -0.440505 0.088542 0.242370 0.078314 0.079512 0.051312 -0.663811 0.319142 -0.286118 0.497504 -0.284348 -0.356515 0.928278 -0.150131 0.406455 0.120098 -0.010283 -0.195878 -0.493029 0.129031 -0.052939 -0.227103 0.144356 -0.028227 -0.127104 -0.045945 -0.785881 -0.044050 -0.161388 -0.716909 0.312567 0.086257 0.670049 -0.170096 0.475338 0.183621 0.426935 -0.557906 -0.757734 -0.020063 0.363377 -0.262879 -0.136453 0.060944 0.136958 -0.442377 -0.670324 -0.074450 0.041152 0.181001 -0.278372 0.116537 -0.093782 0.570460 0.068743 -0.118719 -0.234677 -0.346430 0.694571 -0.561585 -0.352383 -0.164073 0.222163 0.010306 0.168815 -0.161533 0.472186 -0.143063 0.374132 0.127278 0.089288 0.315389 0.576342 -0.454871 0.243883 -0.242610
常 0.347922 -0.092602 0.081019 -0.505464 -0.184010 0.797870 0.246728 -0.097179 0.380848 -0.180421 -0.166303 0.432709 0.069084 -0.012064 0.111945 0.115250 -0.487828 -0.500346 -0.347578 -0.063627 0.567958 -0.154922 -0.314766 -0.187259 -0.117737 0.004426 0.325693 -0.374566 -0.478299 0.305421 -0.308492 0.286955 -0.224554 0.753516 0.379109 -0.323017 0.706755 0.008073 0.110888 -0.047104 0.175880 0.719633 0.045358 -0.106199 -0.429435 -0.406239 -0.075096 0.087134 0.043377 -0.255062 0.060208 0.097489 0.417426 0.322287 -0.482798 -0.601105 -0.130117 0.244051 -0.828644 0.420183 0.511381 -0.653753 0.112781 0.032278 -0.257894 -0.169111 -0.161955 0.630461 -0.800984 0.553096 0.213242 0.463580 -0.145052 0.089268 -0.123585 -0.167601 1.010703 0.117263 0.270647 -0.386475 -0.008087 0.206988 0.463705 -0.267881 0.197894 0.093771 -0.390941 0.103909 -0.137240 0.338162 -0.456798 0.398527 0.291571 0.017663 0.242181 -0.273057 -0.375670 0.288893 -0.270976 0.119399 -0.382545 -0.179114 -0.672400 -0.511371 0.540670 -0.103950 0.124343 0.017447 -0.389655 -0.383894 -0.712363 -0.370482 -0.331973 -0.221603 -0.314859 0.200136 0.135204 -0.230113 0.049760 0.539757 -0.333044 0.078203 -0.561389 0.453022 -0.016149 -0.014047 -0.600444 0.437474 0.063435 -0.324573 0.040034 0.018382 -0.336868 0.596606 0.962831 -0.486683 -0.111741 0.132168 -0.231111 -0.011652 0.476632 -0.314537 -0.017512 -0.313109 0.385878 -0.142301 0.108708 -0.555041 0.573935 0.145411 0.693829 0.027978 0.478313 -0.069300 0.082726 -0.000983 0.001953 0.347084 -0.652148 -0.439579 0.053523 -0.025061 0.518781 0.456617 0.260000 -0.153108 -0.343566 -0.024876 -0.112221 0.347149 -0.862992 -0.100701 0.304724 0.613301 -0.413530 0.091772 0.041573 -0.140839 0.415217 0.170232 -0.385753 -0.433191 0.399587 0.486106 0.557673 -0.000905 0.763161 -0.332354 0.375647 0.209690 -0.381744 -0.485869 -0.163812 -0.077827 -0.169119 0.109052 -0.645223 -0.454560 0.307364 0.069257 -0.025171 0.460024 0.026357 0.410422 -0.280129 -0.326656 -0.148307 -0.455545 0.126949 -0.400729 0.204557 0.058338 0.757012 -0.560238 0.463599 0.120597 0.049112 -0.038075 -0.484801 -0.237966 0.126865 -0.314886 0.073265 0.277539 0.426984 -0.411949 -0.383416 0.173365 0.181208 -0.521613 -0.314845 0.720571 -0.685164 0.225440 -0.229063 0.008623 -0.044540 0.239137 0.648382 -0.326015 0.420127 -0.078764 0.306680 -0.799553 -0.740785 -0.049567 0.663220 0.130402 -0.727568 0.070610 0.063226 -0.101460 0.096375 0.197019 -0.012342 -0.350918
购 -0.677526 -0.057792 0.424470 -0.854778 0.008094 -0.247505 0.571299 -0.140993 0.476653 -0.069623 0.102532 0.390873 -0.370575 0.114534 -0.131131 0.048130 0.885621 -0.102117 -0.445523 0.464750 0.116807 0.183381 -0.219415 0.874884 0.187599 -0.048593 -0.017149 0.109186 -0.302994 -0.084051 -0.041671 -0.716354 -0.359792 -0.380258 0.329173 -0.247562 -0.159762 -0.036147 -0.478823 0.583617 -0.170564 -0.038732 -0.426536 0.520133 -0.503435 0.373319 -0.232085 -0.440664 -0.173278 0.203077 0.056255 0.101112 -0.257340 0.137539 -0.039294 0.029430 -0.206500 0.000461 -0.492943 0.210604 -0.067825 -0.043358 0.112085 -0.314345 -0.466413 0.047552 0.172637 -0.019132 0.518707 -0.154129 0.392337 0.017745 -0.401329 -0.146761 -0.296857 -0.224249 -0.309965 -0.014091 0.040686 -0.337097 -0.400455 0.655235 1.056732 -0.117142 -0.096997 -0.014304 -0.104692 0.174451 0.191712 -0.283326 -0.422005 0.133175 -0.288654 0.107452 0.414338 0.160676 -0.181003 0.309181 0.359500 -0.132306 -0.405356 0.011374 0.275991 -0.542122 -0.151318 -0.402892 0.070363 -0.185253 -0.742762 -0.662349 0.110208 -0.616578 0.147187 -0.620716 0.449598 -0.059767 -0.213329 -0.155315 -0.175310 -0.044319 -0.341505 0.326435 -0.192016 0.091927 -0.525479 0.129572 0.341634 0.299947 0.247506 0.067022 -0.287834 0.331764 0.400455 -0.338930 0.001651 -0.776680 -0.284282 -0.123574 -0.207869 -0.002173 -0.651279 0.039551 -0.395079 -0.460274 -0.241472 -0.013656 -0.301080 -0.087381 -0.199621 0.510936 0.020506 -0.396883 -0.172074 0.273005 -0.392393 0.505910 -0.462536 0.032611 0.323197 0.194654 0.052458 0.100604 0.162178 -0.102516 -0.041950 -0.092413 0.550863 -0.235901 -0.220091 -0.041719 0.881094 0.023906 -0.259625 0.181499 -0.440752 0.071146 0.278739 0.911062 -1.011279 0.355608 0.127398 -0.011993 0.299414 0.359008 -0.095362 -0.363433 0.010922 0.150389 -0.104036 -0.771189 -0.704054 -0.656795 -0.492678 -0.209953 0.384254 0.270674 -0.136381 -0.156409 -0.056791 -0.455740 0.246086 -0.424343 0.000021 0.616410 0.215129 -0.229684 0.287027 -0.218483 -0.024165 -0.154384 0.014498 0.029113 0.413857 0.503751 -0.180432 0.339329 -0.522039 -0.647440 0.256284 -0.351694 0.622504 0.039881 0.299565 0.622123 0.054223 0.269764 0.073514 0.176951 0.158988 -0.588620 0.025174 -0.089576 0.414166 -0.114501 -0.035290 0.413251 -0.561988 -0.017028 0.062485 -0.518192 0.002855 -0.688329 -0.425629 -0.174291 -0.513570 -0.789039 -0.142190 -0.355801 -0.170762 -0.448868 -0.324141 -0.181513 0.283875 -0.476474 0.462799 -0.162538
能 -0.191734 -0.639565 0.321169 -0.320746 -0.474987 0.035188 0.282605 -0.464822 -0.319370 0.490935 -0.648944 0.217168 -0.292996 -0.415383 0.044779 -0.329763 -0.243803 0.022013 -0.127238 -0.127484 0.131786 0.412937 0.254518 0.369818 -0.057879 -0.060059 0.005052 -0.225271 -0.218329 0.372907 -0.052797 -0.352769 -0.321146 0.064716 0.057710 -0.206988 -0.048356 -0.345162 0.068645 -0.256166 -0.484412 0.042914 -0.680396 -0.266911 0.354153 -0.128486 -0.051168 -0.289898 0.191542 -0.338591 -0.187773 0.289089 -0.231837 0.081456 0.027976 -0.788143 0.059541 -0.329654 0.134908 -0.121625 -0.308195 0.020060 0.257816 -0.030757 -0.191590 -0.167455 -0.458006 -0.040616 -0.012789 0.405339 -0.098783 0.171204 -0.100467 -0.019081 -0.310450 -0.076188 -0.477482 -0.479831 -0.106483 -0.007489 -0.566401 -0.434038 -0.433343 0.402404 0.555502 0.421071 0.663676 -0.191008 -0.635654 0.212409 -0.265098 0.229163 -0.613334 0.393397 0.406687 -0.251635 0.226408 0.110691 0.224778 0.063065 -1.626334 0.045777 -0.250689 -0.631093 0.081226 0.185286 0.784047 -0.339131 -0.190531 -0.304310 -0.506283 0.076392 -0.331163 0.094483 -0.188198 0.004818 -0.366211 -0.464042 -0.870676 0.141622 -0.255006 0.245006 0.137238 0.516667 -0.461204 -0.314842 -0.078491 -0.393755 -0.079394 0.584295 -0.629757 -0.495305 0.209020 -0.565342 0.193034 0.707018 -0.234679 0.245087 -0.135688 -0.333097 -0.513310 -0.487255 0.494049 0.215442 -0.109474 0.333448 0.159373 -0.183659 -0.549842 0.541922 -0.553565 0.115205 -0.359209 0.095481 0.331269 0.011066 0.132991 -0.110515 0.267949 0.268028 0.123371 0.542113 -0.787570 0.361684 0.325729 -0.295488 0.127839 0.175079 0.192418 0.379641 -0.387968 -0.645665 0.036439 -0.033966 -0.158728 -0.112937 0.428192 0.396826 0.020099 -0.205327 -0.164880 -0.185745 0.226569 -0.092231 0.245784 -0.115053 0.106818 0.114061 -0.338098 -0.482474 0.049249 -0.608916 0.187359 0.353294 0.240123 0.057847 -0.259613 -0.370176 0.207285 -0.260628 -0.620500 -0.128723 -0.078524 0.023564 0.305602 0.019719 0.286248 0.221412 0.278097 0.345036 -0.536409 0.624825 -0.464187 -0.559697 -0.454589 0.262649 -0.207539 0.304254 0.201614 0.168918 0.070650 -0.591377 0.129076 0.567315 -0.302527 -0.712777 -0.538424 0.291695 0.560807 -0.175127 -0.167098 -0.339395 -0.307887 0.221418 -0.008178 0.243155 0.297236 -0.250772 0.450945 -0.529158 -0.420084 0.176836 -0.406665 -0.165618 0.442139 -0.233103 0.241718 0.605536 0.184444 -0.767759 0.560116 -0.668121 0.721080 -0.200610 0.068518 -0.203138
自 -0.184299 -0.420871 0.631735 -0.354454 0.360963 0.805003 -0.102128 0.220790 -0.332613 0.288442 0.134069 -0.227253 -0.006270 -0.677163 -0.021164 0.072870 0.063325 -0.156798 0.225504 -0.342070 0.567447 0.007646 0.187321 0.109220 -0.151984 -0.477042 0.435859 0.150668 -0.032337 0.550850 0.362840 0.069401 0.088242 -0.228944 0.054343 -0.106189 -0.037549 -0.130598 0.224181 -0.355275 -0.543506 0.787188 0.233661 -0.111311 -0.210128 0.089519 0.328634 -0.332393 0.510613 -0.556949 -0.077516 -0.208756 -0.122793 -0.156860 -0.269629 -0.270930 -0.142743 -0.251325 0.210888 0.150104 0.065283 0.109974 -0.181950 -0.058662 0.274471 -0.191122 -0.100840 -0.209184 -0.224439 -0.244078 0.211863 -0.173325 -0.347895 0.676125 -0.404495 -0.548393 -0.241346 -0.065215 0.006532 0.311099 0.143722 0.448358 0.515272 0.311232 -0.151156 0.388731 0.274308 -0.055225 -0.375220 -0.287155 0.094842 -0.155066 -0.570412 -0.234271 0.478460 -0.393307 0.086303 0.379068 -0.909599 -0.256107 -0.895262 -0.376541 0.078104 0.043756 -0.227961 -0.525782 -0.073813 1.070812 -0.279678 -0.339546 -0.067373 0.154506 -0.010738 0.481985 0.213125 0.172782 -0.067840 -0.679807 -0.511789 0.198324 0.117796 0.468795 0.619717 0.216982 -0.393834 -0.107131 -0.109776 -0.641376 -0.362133 0.300657 0.091954 -0.661271 0.514363 0.406836 0.191815 -0.435436 0.267261 0.195407 0.286651 -0.431620 -0.203159 -0.436143 0.363571 -0.088579 0.391819 -0.559586 -0.222703 0.599019 0.586201 -0.326781 0.064597 -0.090088 0.314007 0.014790 -0.001748 0.188272 -0.619758 -0.258471 0.023243 -0.141685 0.014033 0.229471 -0.025848 0.329867 0.311617 0.261212 -0.336276 -0.185735 -0.581981 -0.271638 -0.452276 -0.180841 -0.010426 0.657553 -0.508500 0.260767 0.234933 0.771236 -0.585537 -0.221422 0.080880 0.338593 0.192029 0.147975 0.209024 0.337792 0.351056 -0.312788 -0.144031 -0.451342 -0.715909 -0.612933 0.441001 0.388366 -0.103615 0.706206 -0.300660 -0.453947 -0.129406 -0.306501 -0.654380 -0.104020 -0.069190 0.182135 -0.266937 -0.055613 -0.009165 0.049676 0.303667 0.488225 -0.077940 0.080518 0.257506 -0.104094 0.496818 0.452141 -0.100123 0.074404 0.000977 0.091897 0.111539 -0.507631 0.506428 0.009206 0.179486 -0.245285 0.033291 0.152799 0.069672 -0.661658 0.120934 0.220685 -0.111898 0.412667 -0.211386 0.320049 -0.244982 -0.179214 0.115003 0.039384 -0.078568 0.310652 -0.046187 0.010698 0.054172 0.385876 0.617833 0.597807 -0.206384 0.027855 0.064741 -0.569281 0.038710 -0.307562 0.081648 -0.372952
行 0.138581 -0.287362 0.223180 -0.892900 0.203719 0.752076 0.156538 -0.527311 -0.539168 0.017748 -0.134616 -0.010638 0.200000 -0.309231 -0.245512 0.361142 0.093882 -0.057223 -0.579193 -0.415651 -0.010629 0.654064 -0.009231 -0.111823 -0.261921 -0.119748 0.019716 0.189931 -0.441735 0.486512 0.194185 -0.471038 0.327205 -0.432443 0.600145 -0.157848 0.002976 -0.058521 0.503418 0.000702 -0.457298 0.589479 -0.420972 -0.372629 -0.338267 0.008406 -0.097354 -0.746198 -0.343903 -0.348549 -0.538682 -0.751699 0.146104 0.958019 0.486301 -0.356010 0.060973 -0.294450 0.013678 0.221700 -0.316577 0.333287 -0.126573 -0.528114 0.034707 0.110928 -0.138977 -0.250935 -0.032875 -0.443309 -0.173952 0.433419 -0.362867 0.327111 0.197525 -0.236850 -0.387790 -0.760910 0.616565 0.098697 0.214670 0.206369 -0.237528 0.082730 -0.082533 -0.026193 -0.576087 -0.490415 0.112334 0.150164 0.519012 0.313637 0.439002 0.149198 0.211521 0.017834 -0.404690 0.147296 0.249753 0.205221 -0.694631 0.236092 -0.195440 0.070728 -0.144911 -0.331509 0.590505 0.214815 0.054181 0.344818 -0.047214 0.643064 -0.105903 -0.196608 -0.260485 0.277922 0.360675 -0.279271 -0.190006 0.451998 0.193359 0.570113 0.463007 0.497735 -0.144079 0.084656 -0.550170 -0.381150 -0.543608 -0.308838 -0.306046 -0.497792 -0.187686 0.350260 -0.574794 0.016492 0.239383 0.260541 0.354072 0.481781 -0.457694 0.178869 0.107970 0.006378 0.811000 -0.085046 -0.146273 -0.040771 -0.655032 -0.109032 -0.249477 -0.289996 -0.398295 -0.269048 -0.289301 0.063383 -0.501378 0.004962 0.091029 0.084225 -0.324900 -0.048480 -0.275729 -0.360904 0.297034 -0.440569 0.204601 -0.148413 -0.229030 -0.082559 -0.559670 -0.855113 -0.290760 0.005793 -0.768559 -0.059709 -0.393933 0.640250 -0.737878 -0.178565 0.052606 -0.001631 0.207721 -0.271475 0.099238 0.204597 0.546143 -0.089265 -0.023164 0.180427 0.032011 -0.309417 0.396613 -0.070735 0.476220 0.102962 0.180769 -0.594894 -0.218059 -0.197316 -0.542618 0.037738 -0.196862 0.082433 0.043357 -0.225268 0.092533 -0.803198 0.305669 0.021827 -0.154330 -0.275264 -0.101069 -0.362405 0.505036 0.942403 -0.374378 -0.212837 0.144537 0.545308 0.429162 -0.256770 0.362260 0.379908 -0.004197 -0.952571 0.021777 0.147940 0.351168 0.442473 -0.776369 0.109087 0.114173 0.650453 -0.287061 -0.191576 -0.245520 -0.442563 -0.086618 0.358010 0.177035 0.247118 -0.147014 -0.015572 -0.063582 0.475509 0.747857 0.057702 -0.253089 0.360318 -0.547959 -0.090058 -0.135632 -0.449826 -0.212108 0.069948
过 -0.295291 -0.075375 0.117119 -0.324116 0.265842 -0.331910 0.403739 -0.249515 0.085392 0.346073 0.633894 0.977664 -0.579682 -0.232531 0.056361 -0.259528 0.088026 -0.205792 -0.293497 0.318834 0.254056 -0.114307 0.158839 -0.648199 0.426087 0.562340 -0.079559 0.158951 0.256003 -0.389360 0.592997 0.049750 0.381814 -0.226353 0.175608 -0.050180 0.126396 -0.508593 -0.517440 0.160251 -0.106473 0.497752 -0.130627 -0.190241 -0.336106 -0.116330 -0.462552 -0.383637 0.090785 0.342946 -0.043038 -0.692786 -0.194220 0.251935 0.048370 -0.782197 0.082631 0.213695 0.331166 0.485140 0.091480 -0.050767 -0.312975 0.107968 0.070629 0.219061 0.402426 -0.493407 -0.290953 -0.368293 0.560530 0.209400 -0.068498 -0.069016 -0.657425 -0.096437 -0.290147 -0.017330 0.131107 0.381969 0.351158 0.222179 -0.114702 -0.069539 0.657568 -0.076009 -0.166108 -0.442802 0.338557 -0.070696 -0.285671 -0.319842 0.336591 0.640487 0.783120 -0.138608 -0.680225 0.084101 -1.076198 0.480067 -1.056730 -0.289500 -0.165401 0.118338 0.208772 -0.045379 0.116038 -0.066299 -0.226729 -0.341136 -0.013190 -0.457273 -0.300877 -0.564055 0.149794 -0.033891 0.368469 -0.644276 -0.442114 0.245798 0.169980 0.334332 -0.271761 0.205352 -0.075050 -0.276841 0.288125 0.410112 0.021220 0.223117 -0.314502 0.343587 0.022296 0.654439 -0.131422 0.090296 0.000715 0.240928 0.366147 -0.165883 0.080505 0.245466 -0.158524 -0.200804 -0.336393 -0.032481 -0.227209 0.395674 -0.292710 -0.000326 0.088548 -0.585846 -0.398535 -0.255148 0.402777 -0.020501 -0.813773 -0.109842 -0.486046 -0.683042 0.415290 -0.574256 0.129711 -0.206438 -0.349998 -0.253395 0.522046 -0.271191 -0.470875 0.283553 -0.172218 0.653819 0.191829 0.464098 -1.107110 -0.356103 0.183250 0.185016 0.275955 -0.105156 -0.158967 -0.223461 -0.022364 0.442119 0.138406 0.372969 -0.156140 0.468138 -0.229602 0.490088 -0.525434 -0.199153 -0.022945 -0.524514 -0.048928 0.715201 -0.261490 0.639271 -0.258825 0.326008 -0.018398 -0.134454 -0.348313 0.104824 -0.346586 -0.338156 0.287785 0.127187 -0.152330 0.217209 -0.089141 -0.257722 -0.425813 0.405595 -0.184110 0.394548 0.019588 -0.011215 0.086396 -0.390619 0.168106 0.177564 0.567101 0.373478 0.256594 1.018908 -0.457058 -0.077616 -0.022093 -0.492733 -0.136449 0.082958 -0.216401 0.338498 -0.045107 -0.262735 0.052109 -0.396153 0.367331 -0.177107 -0.603289 0.325521 0.021088 0.113463 -0.430536 -0.764435 0.865779 0.223707 -0.800742 -0.719938 -0.492964 0.043395 0.633823 -0.318685 -0.017065 -0.371594
这 -0.375453 -0.066787 -0.008722 -0.595989 -0.005621 0.193578 0.467047 0.360332 -0.279134 -0.086179 0.129288 0.079197 0.245609 0.008075 -0.418250 -0.052819 -0.309296 -0.132812 0.136954 -0.055810 0.310243 0.117582 0.048159 -0.144014 -0.171444 0.068246 0.197993 -0.474180 -0.798459 -0.377635 0.552755 -0.094301 -0.524238 -0.149612 -0.235245 -0.718078 -0.007825 -0.378532 0.240868 0.563295 -0.026576 0.415515 -0.124960 -0.193200 -0.378102 -0.109828 -0.592964 -0.134257 0.328741 0.100804 0.573578 0.020960 -0.629521 0.445161 0.066071 -0.157747 0.404813 0.574023 -0.386055 0.542023 0.301360 -0.391632 -0.060473 -0.105090 -0.091498 0.050588 -0.176647 0.114238 -0.472984 0.083714 0.024461 -0.077104 0.425474 -0.351604 -0.307309 0.021082 0.149097 -0.541345 0.201991 0.330924 -0.151988 -0.300887 0.006853 0.261028 1.144252 0.146602 -0.187474 -0.315987 -0.296301 0.196428 0.343192 -0.069040 0.465079 0.176828 0.703629 -0.456814 0.351002 0.224204 -0.360480 0.075567 -0.832277 0.099976 -0.370748 -0.721440 -0.039206 -0.072842 0.575430 -0.246537 0.146264 -0.380909 0.431589 0.273963 -0.480060 -0.055985 0.366757 -0.096699 -0.199398 -0.405314 -0.270162 0.003715 -0.541239 0.341638 -0.067665 -0.046155 0.088795 -0.020439 -0.395516 0.417815 0.451406 -0.231761 -0.048465 -0.008991 -0.326610 -0.077697 -0.104732 0.470750 -0.173891 -0.034052 -0.368968 -0.038280 0.265944 -0.227586 0.120699 -0.101518 -0.380432 -0.183289 -0.127361 -0.049973 0.507768 0.087840 0.285495 -0.064710 -0.019395 0.414062 0.321946 -0.173219 0.126247 -0.256666 0.270890 -0.031001 0.356058 -0.271658 0.213122 0.222478 -0.394682 -0.405475 -0.113874 -0.344720 -0.264671 0.262668 -0.017029 -0.049535 0.333553 0.142547 -0.563057 0.569655 0.369887 0.162810 0.424844 -0.665811 0.104485 -0.226100 0.361024 0.184992 0.152346 0.297620 -0.066818 0.375039 -0.224972 0.260800 -0.482400 -0.192301 0.050186 0.256827 -0.025385 -0.193409 -0.371528 0.076556 0.044639 0.513644 0.101544 0.272479 -0.428249 -0.140049 0.325627 -0.336886 0.401437 -0.197271 -0.225189 -0.800020 -0.280157 -0.433400 -0.080320 0.482276 -0.054470 -0.173488 -0.045086 0.014848 0.133557 -0.495277 0.006000 -0.092861 0.095792 0.712049 0.183578 -0.608553 -0.145241 -0.613656 0.217515 -0.046586 -0.779042 0.171670 -0.324433 0.050065 0.280124 0.398474 0.403209 0.254871 -0.056321 -0.263912 -0.438581 0.030512 -0.453624 0.240828 -0.398831 -0.323165 0.049039 -0.016805 -0.337532 -0.261074 -0.315067 -0.384650 0.299141 -0.252140 -0.389655 -0.256623
运 0.415789 -0.154244 -0.082970 0.197234 0.052770 0.022569 -0.798754 0.317650 -0.032166 0.207997 -0.083028 -0.191230 0.092978 0.046099 -0.254764 0.150731 0.229890 -0.084919 -0.814345 -0.230349 0.533627 -0.660666 -0.042758 -0.175345 -0.161202 0.415157 -0.037411 0.199442 0.068575 0.597931 0.179095 -0.112326 -0.357545 -0.112445 0.433961 -0.288410 -0.400714 -0.149577 0.176431 -0.188123 0.547156 0.539306 -0.187465 -0.082546 -0.375532 -0.243070 -0.542476 -0.134689 0.515203 -0.356314 0.565429 0.443503 0.308400 -0.382581 -0.229457 -0.540699 0.142639 0.128454 0.002637 -0.407994 0.109821 -0.118034 -0.021967 0.174876 -0.201429 0.081705 -0.294524 0.106573 0.383563 0.381954 0.310235 -0.037317 -0.222991 -0.104241 0.018922 0.004879 0.030530 0.076760 0.097550 -0.443471 0.252501 0.545975 -0.105268 -0.246180 0.345263 0.875936 -0.062271 -0.653732 0.369977 -0.593139 -0.076590 -0.167820 0.282459 -0.024848 -0.136814 0.358855 -0.059933 -0.007865 -0.480528 0.528350 -0.775535 -0.081462 -0.240217 -0.307402 0.751506 0.554293 0.054837 0.081820 -0.571908 -0.050810 -0.524101 -0.023914 -0.448144 -0.106763 -0.295230 -0.090821 -0.482813 -0.083998 0.013030 0.151600 0.294044 0.178537 -0.070409 0.251988 -0.196843 -0.560694 0.000377 -0.600069 0.109394 -0.246853 -0.197444 -0.322156 -0.369205 -0.282394 -0.167719 0.160473 0.010058 -0.584798 0.231679 -0.045775 0.347144 -0.175240 0.630574 0.154783 0.605727 -0.545353 -0.432396 -0.045657 0.432807 -0.403259 0.335959 -0.240016 0.179495 -0.127200 0.289926 -0.084313 0.289351 -0.439436 0.239628 -0.382766 1.002331 -0.052860 -0.144341 -0.173559 0.003757 0.183346 -0.141011 0.131886 -0.000213 0.375959 -0.439019 -0.285806 0.222662 0.018560 0.199693 -0.160581 0.234310 -0.623198 0.140403 -0.002271 -0.330586 -0.357014 -0.072075 0.163724 -0.365457 0.136933 0.505302 -0.041938 -0.152990 -0.488688 -0.524058 -0.312705 -0.186521 0.400651 -0.245772 0.351968 -1.141920 -0.359207 0.305017 -0.460727 -0.249648 -0.246634 -0.338229 -0.221518 -0.638013 0.055384 -0.879674 0.124676 0.209526 -0.388841 0.075246 0.184329 0.593987 -0.546381 -0.958480 -0.275202 0.074398 0.150081 -0.342856 -0.163492 0.148293 -0.611167 0.439217 0.382832 0.269804 -0.073875 -0.596776 -0.428611 -0.268354 0.279414 -0.292875 0.274153 -0.405069 -0.024060 0.529826 0.597235 -0.430841 0.418352 0.280298 0.074967 -0.040326 0.234971 0.253779 0.074769 -0.020439 0.091415 0.196358 -0.120295 0.210809 0.411427 -0.219296 0.088960 0.587081 0.270533 0.244072 -0.363971
买 -0.748981 0.168206 0.575609 -1.025875 -0.303512 0.048710 0.702928 -0.005304 0.602187 -0.161329 0.080040 0.726986 -0.322053 -0.114689 -0.021480 0.087304 0.247675 -0.366027 -0.326987 0.253418 -0.347654 0.153202 -0.148865 0.542872 0.135603 -0.024916 -0.546135 -0.061576 -0.683610 -0.648675 0.171959 -0.538226 0.202857 -0.287055 -0.146048 -0.192114 -0.278152 -0.068227 -0.930589 0.424422 0.001490 0.111437 -0.234905 0.074449 -0.109371 0.145287 0.170844 -0.317025 -0.100278 0.365215 -0.094936 -0.173706 -0.448457 0.417392 0.321484 -0.516074 -0.107731 0.435907 -0.246256 0.315473 0.035746 -0.072235 0.267929 -0.359588 -0.532954 -0.326515 -0.205002 0.179805 0.176172 0.082147 0.331246 -0.128852 -0.487034 -0.546000 -0.317768 -0.313544 -0.605028 0.022821 0.009407 -0.045504 -0.152528 0.396630 0.598806 0.308742 0.068872 -0.003669 -0.043148 -0.020905 -0.128628 -0.441456 -0.512495 -0.361531 -0.277414 -0.098464 0.870863 0.187087 -0.036381 -0.100347 0.099807 -0.413776 -0.640693 -0.251602 0.235511 -0.371235 0.014365 0.162180 0.309452 -0.245303 -0.540656 -0.546378 0.177992 -0.568408 -0.188322 -0.430565 0.213628 -0.039917 0.000700 -0.086155 0.107766 -0.260768 -0.439696 0.046431 0.046850 0.023575 -0.479327 0.854675 -0.098531 0.791872 0.405374 0.432681 -0.347316 0.001870 0.171721 -0.263340 0.459724 0.024823 -0.240559 -0.017537 -0.370705 0.523377 0.293601 -0.128328 -0.161680 -0.548733 -0.185866 0.185922 -0.309087 0.067466 0.198595 0.677718 -0.115227 -0.597546 -0.434350 0.334667 -0.203628 0.179013 -0.167717 -0.053763 0.428644 -0.152789 0.108823 0.070011 -0.003446 0.315173 -0.223827 0.070947 0.457689 -0.259446 -0.037263 0.263414 0.796283 0.462040 -0.101678 0.187042 -0.524366 0.345173 0.438710 0.749390 -0.507301 -0.189518 0.175814 -0.122390 0.192271 0.309477 0.019397 -0.612771 0.018776 0.172687 -0.538528 -0.207482 -0.574839 -0.717707 -0.190876 -0.333070 0.171424 0.170032 -0.202625 0.402833 -0.336237 -0.072475 -0.214804 -0.355614 0.231256 0.097456 0.090354 -0.224541 0.069376 -0.076160 -0.492870 0.313953 -0.105904 -0.226486 -0.052968 0.280807 -0.086735 0.262488 -0.586630 -0.126271 0.472653 0.024545 0.002275 -0.082515 -0.143509 0.588054 -0.125897 0.667569 -0.263240 0.229187 0.452162 -0.511967 0.123994 -0.307583 -0.057164 0.185971 -0.152876 0.175020 -0.386301 0.305109 0.170017 -0.182114 -0.002869 -0.470907 0.326923 -0.284589 -0.708434 -0.998760 -0.149763 -0.332227 -0.193592 -0.645954 -0.049173 -0.692523 0.414483 0.087385 0.007155 0.006480
工 0.103236 -0.126926 0.805192 0.642232 -0.126555 0.302446 -0.377065 -0.061638 -0.349984 0.065533 0.294309 -0.031588 0.477872 -0.434142 0.012678 -0.083361 0.439494 -0.159904 0.563864 0.229679 0.579498 -0.291749 0.091086 0.051658 0.278790 0.053861 -0.012497 0.226055 -0.378995 0.090568 0.151136 -0.246560 0.067494 0.294853 -0.122994 0.063943 0.039489 0.146980 0.128480 -0.144008 0.209965 0.359344 -0.405495 -0.923318 0.158755 -0.611298 0.194419 0.549885 0.039772 -0.757651 -0.096611 -0.145580 -0.372998 0.175324 -0.123694 0.166866 -0.224763 -0.294279 -0.231079 0.860976 0.069666 0.202664 0.119071 0.142104 0.563449 -0.245640 0.345823 -0.176024 -0.516539 -0.285330 -0.289619 -0.185655 -0.560492 0.184107 -0.217262 -0.276686 0.121118 -0.077188 0.485649 0.100038 -0.414614 0.198043 -0.262946 0.404831 0.111417 0.270346 0.773807 0.181646 -0.884620 0.506459 0.106048 0.618511 -0.489897 0.706570 -0.114163 -0.211034 0.428414 -0.430026 0.015694 0.070402 -0.919751 0.832959 -0.115965 -0.145178 -0.109312 -0.447718 0.095429 0.077651 0.280751 -0.060411 -0.259284 0.672569 0.419629 0.278067 0.010647 0.115354 -0.298448 -0.349200 -0.638347 0.300869 -0.134769 -0.011328 -0.108517 0.258734 -0.258293 0.172198 0.019981 -0.651742 0.287970 -0.293165 0.748406 -0.622659 0.072239 -0.178273 -0.164149 -0.061192 -0.287921 -0.543634 -0.091286 -0.139639 -0.218298 -0.387397 0.392942 -0.019263 0.293974 -0.088304 0.041419 0.050919 -0.480691 0.129502 -0.210143 0.233734 -0.021909 -0.053487 -0.265721 -0.119399 -0.259158 -0.036408 -0.195810 -0.155414 0.123861 0.035573 -0.138219 0.891809 0.205245 0.143757 0.013346 0.141063 -0.234876 -0.107732 0.267217 -0.299097 -0.332966 0.057101 -0.245830 0.069023 0.001363 0.359432 -0.035107 -0.078050 -0.026322 -0.131896 0.076445 0.148456 -0.143241 -0.125896 0.119899 -0.001159 -0.338955 -0.243544 -0.120634 -0.511806 0.074934 -0.577127 0.573467 0.588075 -0.047671 -0.112415 0.065728 -0.053132 -0.400256 0.082071 -0.220311 -0.200681 0.229723 -0.032085 0.205410 -0.220201 0.355439 0.081966 -0.408002 -0.264661 -0.654870 0.289253 0.531935 0.017817 -0.077053 0.560483 0.015885 -0.033045 -0.112919 0.020647 0.305836 -0.548194 0.773566 0.393989 -0.012866 0.355027 0.273076 -0.142863 -0.190725 0.572271 -0.071896 0.195634 -0.170067 0.303229 0.255785 -0.135833 0.353029 -0.126095 0.106880 -0.254795 -0.537276 -0.402005 0.150975 0.344823 -0.033307 0.738560 -0.664841 0.274086 0.121706 -0.811754 0.010547 -0.073515 0.115381 -0.675276
